{"learner":{"attributes":{"scikit_learn":"{\"_estimator_type\": \"regressor\"}"},"feature_names":[],"feature_types":[],"gradient_booster":{"model":{"cats":{"enc":[],"feature_segments":[],"sorted_idx":[]},"gbtree_model_param":{"num_parallel_tree":"1","num_trees":"232"},"iteration_indptr":[0,1,2,3,4,5,6,7,8,9,10,11,12,13,14,15,16,17,18,19,20,21,22,23,24,25,26,27,28,29,30,31,32,33,34,35,36,37,38,39,40,41,42,43,44,45,46,47,48,49,50,51,52,53,54,55,56,57,58,59,60,61,62,63,64,65,66,67,68,69,70,71,72,73,74,75,76,77,78,79,80,81,82,83,84,85,86,87,88,89,90,91,92,93,94,95,96,97,98,99,100,101,102,103,104,105,106,107,108,109,110,111,112,113,114,115,116,117,118,119,120,121,122,123,124,125,126,127,128,129,130,131,132,133,134,135,136,137,138,139,140,141,142,143,144,145,146,147,148,149,150,151,152,153,154,155,156,157,158,159,160,161,162,163,164,165,166,167,168,169,170,171,172,173,174,175,176,177,178,179,180,181,182,183,184,185,186,187,188,189,190,191,192,193,194,195,196,197,198,199,200,201,202,203,204,205,206,207,208,209,210,211,212,213,214,215,216,217,218,219,220,221,222,223,224,225,226,227,228,229,230,231,232],"tree_info":[0,0,0,0,0,0,0,0,0,0,0,0,0,0,0,0,0,0,0,0,0,0,0,0,0,0,0,0,0,0,0,0,0,0,0,0,0,0,0,0,0,0,0,0,0,0,0,0,0,0,0,0,0,0,0,0,0,0,0,0,0,0,0,0,0,0,0,0,0,0,0,0,0,0,0,0,0,0,0,0,0,0,0,0,0,0,0,0,0,0,0,0,0,0,0,0,0,0,0,0,0,0,0,0,0,0,0,0,0,0,0,0,0,0,0,0,0,0,0,0,0,0,0,0,0,0,0,0,0,0,0,0,0,0,0,0,0,0,0,0,0,0,0,0,0,0,0,0,0,0,0,0,0,0,0,0,0,0,0,0,0,0,0,0,0,0,0,0,0,0,0,0,0,0,0,0,0,0,0,0,0,0,0,0,0,0,0,0,0,0,0,0,0,0,0,0,0,0,0,0,0,0,0,0,0,0,0,0,0,0,0,0,0,0,0,0,0,0,0,0,0,0,0,0,0,0,0,0,0,0,0,0],"trees":[{"base_weights":[7.913644E-4,-1.6531497E-1,3.1084764E-1,1.13844555E-2,-3.898823E-1,1.8034455E-1,5.315582E-1,-1.7472164E-1,9.903201E-2,-6.1642385E-1,-2.2216886E-1,4.1882792E-1,6.804983E-2,4.5889428E-1,8.3459455E-1,-1.9329345E-2,-5.3545213E-3,7.2532166E-3,1.4131162E-3,-3.359208E-2,-1.7401386E-2,-1.8730493E-2,-6.761731E-3,1.3157965E-2,2.3959557E-2,-1.969975E-3,5.2390005E-3,1.3056104E-2,2.158632E-2,3.0715853E-2,1.8241309E-2],"categories":[],"categories_nodes":[],"categories_segments":[],"categories_sizes":[],"default_left":[0,0,0,0,0,0,0,0,0,0,0,0,0,0,0,0,0,0,0,0,0,0,0,0,0,0,0,0,0,0,0],"id":0,"left_children":[1,3,5,7,9,11,13,15,17,19,21,23,25,27,29,-1,-1,-1,-1,-1,-1,-1,-1,-1,-1,-1,-1,-1,-1,-1,-1],"loss_changes":[5.6559827E2,2.8376263E2,1.1025003E2,6.531321E1,1.1950635E2,6.4485535E1,3.0951202E1,7.9315796E0,1.8072134E1,5.0311157E1,1.2788338E1,6.0386353E0,1.8175724E1,1.4651703E1,5.7470703E0,0E0,0E0,0E0,0E0,0E0,0E0,0E0,0E0,0E0,0E0,0E0,0E0,0E0,0E0,0E0,0E0],"parents":[2147483647,0,0,1,1,2,2,3,3,4,4,5,5,6,6,7,7,8,8,9,9,10,10,11,11,12,12,13,13,14,14],"right_children":[2,4,6,8,10,12,14,16,18,20,22,24,26,28,30,-1,-1,-1,-1,-1,-1,-1,-1,-1,-1,-1,-1,-1,-1,-1,-1],"split_conditions":[2E0,4E0,3E0,2E0,2E0,2E0,6E0,2E0,2E0,2E0,2E0,5E0,3E0,4E0,4E0,-1.9329345E-2,-5.3545213E-3,7.2532166E-3,1.4131162E-3,-3.359208E-2,-1.7401386E-2,-1.8730493E-2,-6.761731E-3,1.3157965E-2,2.3959557E-2,-1.969975E-3,5.2390005E-3,1.3056104E-2,2.158632E-2,3.0715853E-2,1.8241309E-2],"split_indices":[1,6,1,2,2,6,2,4,6,4,4,2,2,1,6,0,0,0,0,0,0,0,0,0,0,0,0,0,0,0,0],"split_type":[0,0,0,0,0,0,0,0,0,0,0,0,0,0,0,0,0,0,0,0,0,0,0,0,0,0,0,0,0,0,0],"sum_hessian":[1.098E4,7.15E3,3.83E3,4.002E3,3.148E3,2.408E3,1.422E3,1.281E3,2.721E3,1.338E3,1.81E3,7.7E2,1.638E3,1.149E3,2.73E2,4.7E1,1.234E3,8.94E2,1.827E3,2.75E2,1.063E3,1.07E2,1.703E3,7.05E2,6.5E1,6.7E2,9.68E2,8.29E2,3.2E2,2.14E2,5.9E1],"tree_param":{"num_deleted":"0","num_feature":"9","num_nodes":"31","size_leaf_vector":"1"}},{"base_weights":[-4.366783E-3,-1.8333298E-1,2.769264E-1,-3.9424005E-1,-5.0561395E-2,4.9545473E-1,8.022506E-2,-8.803729E-1,-3.2677352E-1,1.5427811E-1,-2.0490678E-1,4.084888E-1,8.865193E-1,-3.1911358E-3,4.37285E-1,-2.3379387E-2,-3.4979474E-2,-5.2559543E-3,-1.5091572E-2,-1.2703997E-2,5.8362177E-3,-1.1222962E-2,-2.2992888E-3,1.1823969E-2,2.05134E-2,2.4924375E-2,3.333066E-2,-1.9932175E-3,7.7220765E-3,1.2110892E-2,2.3272796E-2],"categories":[],"categories_nodes":[],"categories_segments":[],"categories_sizes":[],"default_left":[0,0,0,0,0,0,0,0,0,0,0,0,0,0,0,0,0,0,0,0,0,0,0,0,0,0,0,0,0,0,0],"id":1,"left_children":[1,3,5,7,9,11,13,15,17,19,21,23,25,27,29,-1,-1,-1,-1,-1,-1,-1,-1,-1,-1,-1,-1,-1,-1,-1,-1],"loss_changes":[5.556751E2,1.8888467E2,1.8445105E2,8.5183105E1,1.3095361E2,6.877875E1,6.731455E1,8.629395E0,4.7417007E1,1.8126598E1,4.1429703E1,1.8935425E1,4.8518066E0,2.3894035E1,8.181068E0,0E0,0E0,0E0,0E0,0E0,0E0,0E0,0E0,0E0,0E0,0E0,0E0,0E0,0E0,0E0,0E0],"parents":[2147483647,0,0,1,1,2,2,3,3,4,4,5,5,6,6,7,7,8,8,9,9,10,10,11,11,12,12,13,13,14,14],"right_children":[2,4,6,8,10,12,14,16,18,20,22,24,26,28,30,-1,-1,-1,-1,-1,-1,-1,-1,-1,-1,-1,-1,-1,-1,-1,-1],"split_conditions":[2E0,2E0,2E0,2E0,2E0,4E0,4E0,2E0,2E0,2E0,3E0,3E0,2E0,3E0,3E0,-2.3379387E-2,-3.4979474E-2,-5.2559543E-3,-1.5091572E-2,-1.2703997E-2,5.8362177E-3,-1.1222962E-2,-2.2992888E-3,1.1823969E-2,2.05134E-2,2.4924375E-2,3.333066E-2,-1.9932175E-3,7.7220765E-3,1.2110892E-2,2.3272796E-2],"split_indices":[0,2,3,4,3,0,0,3,3,4,7,7,7,7,7,0,0,0,0,0,0,0,0,0,0,0,0,0,0,0,0],"split_type":[0,0,0,0,0,0,0,0,0,0,0,0,0,0,0,0,0,0,0,0,0,0,0,0,0,0,0,0,0,0,0],"sum_hessian":[1.1036E4,6.745E3,4.291E3,2.605E3,4.14E3,2.032E3,2.259E3,3.16E2,2.289E3,1.779E3,2.361E3,1.664E3,3.68E2,1.832E3,4.27E2,1.48E2,1.68E2,9.53E2,1.336E3,6.1E1,1.718E3,1.216E3,1.145E3,1.297E3,3.67E2,1.56E2,2.12E2,1.477E3,3.55E2,3.29E2,9.8E1],"tree_param":{"num_deleted":"0","num_feature":"9","num_nodes":"31","size_leaf_vector":"1"}},{"base_weights":[1.7999192E-3,1.3583313E-1,-3.4786594E-1,3.2947877E-1,-2.9741626E-2,-1.4345449E-1,-4.9506274E-1,-1.3989842E-3,3.9030942E-1,-7.882636E-2,3.6895233E-1,-3.162003E-1,6.272352E-2,-1.0643517E0,-4.3394876E-1,-1.5061609E-2,1.3939263E-3,1.1398033E-2,2.4113871E-2,-2.1181365E-2,-2.0672241E-3,1.6836936E-2,7.2821556E-3,-2.2856183E-2,-8.309525E-3,9.985613E-4,2.6913822E-2,-3.9266095E-2,-2.6476925E-2,-1.5952628E-2,-3.2768676E-3],"categories":[],"categories_nodes":[],"categories_segments":[],"categories_sizes":[],"default_left":[0,0,0,0,0,0,0,0,0,0,0,0,0,0,0,0,0,0,0,0,0,0,0,0,0,0,0,0,0,0,0],"id":2,"left_children":[1,3,5,7,9,11,13,15,17,19,21,23,25,27,29,-1,-1,-1,-1,-1,-1,-1,-1,-1,-1,-1,-1,-1,-1,-1,-1],"loss_changes":[5.153481E2,2.5487721E2,9.160928E1,7.374777E1,8.390519E1,4.5501965E1,6.115393E1,1.0900547E1,5.195288E1,3.655591E1,9.302994E0,1.7320175E1,1.417694E1,3.930954E0,2.146756E1,0E0,0E0,0E0,0E0,0E0,0E0,0E0,0E0,0E0,0E0,0E0,0E0,0E0,0E0,0E0,0E0],"parents":[2147483647,0,0,1,1,2,2,3,3,4,4,5,5,6,6,7,7,8,8,9,9,10,10,11,11,12,12,13,13,14,14],"right_children":[2,4,6,8,10,12,14,16,18,20,22,24,26,28,30,-1,-1,-1,-1,-1,-1,-1,-1,-1,-1,-1,-1,-1,-1,-1,-1],"split_conditions":[5E0,2E0,2E0,2E0,5E0,2E0,2E0,2E0,5E0,2E0,3E0,2E0,6E0,2E0,4E0,-1.5061609E-2,1.3939263E-3,1.1398033E-2,2.4113871E-2,-2.1181365E-2,-2.0672241E-3,1.6836936E-2,7.2821556E-3,-2.2856183E-2,-8.309525E-3,9.985613E-4,2.6913822E-2,-3.9266095E-2,-2.6476925E-2,-1.5952628E-2,-3.2768676E-3],"split_indices":[8,3,3,2,2,2,4,4,2,4,8,4,2,2,2,0,0,0,0,0,0,0,0,0,0,0,0,0,0,0,0],"split_type":[0,0,0,0,0,0,0,0,0,0,0,0,0,0,0,0,0,0,0,0,0,0,0,0,0,0,0,0,0,0,0],"sum_hessian":[1.0994E4,7.948E3,3.046E3,3.663E3,4.285E3,1.276E3,1.77E3,5.69E2,3.094E3,3.816E3,4.69E2,6.94E2,5.82E2,1.7E2,1.6E3,4.9E1,5.2E2,2.672E3,4.22E2,1.16E2,3.7E3,2.51E2,2.18E2,1.1E2,5.84E2,5.58E2,2.4E1,1.22E2,4.8E1,1.43E3,1.7E2],"tree_param":{"num_deleted":"0","num_feature":"9","num_nodes":"31","size_leaf_vector":"1"}},{"base_weights":[4.915352E-4,-1.7153654E-1,2.7010268E-1,-8.958363E-3,-3.7277427E-1,4.6982294E-1,9.081939E-2,1.5955558E-1,-1.3297285E-1,-5.744923E-1,-2.135859E-1,3.7789428E-1,8.647758E-1,1.1610858E-2,4.2486182E-1,-1.3186852E-5,8.02532E-3,-9.212453E-3,-1.8163604E-3,-3.0717302E-2,-1.658709E-2,5.3743174E-4,-1.284878E-2,1.9080501E-2,9.7074825E-3,3.282757E-2,1.9779561E-2,6.3411873E-3,-2.0336278E-3,1.7759454E-2,6.4831143E-3],"categories":[],"categories_nodes":[],"categories_segments":[],"categories_sizes":[],"default_left":[0,0,0,0,0,0,0,0,0,0,0,0,0,0,0,0,0,0,0,0,0,0,0,0,0,0,0,0,0,0,0],"id":3,"left_children":[1,3,5,7,9,11,13,15,17,19,21,23,25,27,29,-1,-1,-1,-1,-1,-1,-1,-1,-1,-1,-1,-1,-1,-1,-1,-1],"loss_changes":[5.0902792E2,2.1919963E2,1.5303018E2,7.7490746E1,9.60181E1,7.3086914E1,5.963369E1,1.9822086E1,2.3729809E1,3.603125E1,6.463391E1,2.7606384E1,1.108374E1,2.3217463E1,1.0201813E1,0E0,0E0,0E0,0E0,0E0,0E0,0E0,0E0,0E0,0E0,0E0,0E0,0E0,0E0,0E0,0E0],"parents":[2147483647,0,0,1,1,2,2,3,3,4,4,5,5,6,6,7,7,8,8,9,9,10,10,11,11,12,12,13,13,14,14],"right_children":[2,4,6,8,10,12,14,16,18,20,22,24,26,28,30,-1,-1,-1,-1,-1,-1,-1,-1,-1,-1,-1,-1,-1,-1,-1,-1],"split_conditions":[2E0,4E0,2E0,2E0,2E0,4E0,4E0,2E0,2E0,2E0,2E0,2E0,4E0,2E0,4E0,-1.3186852E-5,8.02532E-3,-9.212453E-3,-1.8163604E-3,-3.0717302E-2,-1.658709E-2,5.3743174E-4,-1.284878E-2,1.9080501E-2,9.7074825E-3,3.282757E-2,1.9779561E-2,6.3411873E-3,-2.0336278E-3,1.7759454E-2,6.4831143E-3],"split_indices":[0,6,3,3,2,0,0,2,2,4,3,6,6,6,6,0,0,0,0,0,0,0,0,0,0,0,0,0,0,0,0],"split_type":[0,0,0,0,0,0,0,0,0,0,0,0,0,0,0,0,0,0,0,0,0,0,0,0,0,0,0,0,0,0,0],"sum_hessian":[1.0973E4,6.699E3,4.274E3,3.706E3,2.993E3,2.021E3,2.253E3,1.571E3,2.135E3,1.319E3,1.674E3,1.641E3,3.8E2,1.822E3,4.31E2,5.19E2,1.052E3,7.67E2,1.368E3,2.55E2,1.064E3,7.08E2,9.66E2,5.26E2,1.115E3,2.7E2,1.1E2,5.27E2,1.295E3,2.98E2,1.33E2],"tree_param":{"num_deleted":"0","num_feature":"9","num_nodes":"31","size_leaf_vector":"1"}},{"base_weights":[3.2603876E-3,-1.639529E-1,2.6561487E-1,-2.6764654E-2,-3.9862224E-1,1.8582125E-1,6.1032647E-1,8.080678E-2,-2.078308E-1,-8.6277306E-1,-3.3771384E-1,3.6729887E-1,1.0686392E-1,7.2974765E-1,3.3096442E-1,-9.3150255E-4,5.6064464E-3,-1.3055338E-3,-1.0264302E-2,-2.331675E-2,-3.186141E-2,-7.1210843E-3,-1.4964563E-2,9.115638E-3,2.136721E-2,6.2050985E-4,9.3030445E-3,3.240629E-2,2.1547392E-2,4.950158E-3,1.5617477E-2],"categories":[],"categories_nodes":[],"categories_segments":[],"categories_sizes":[],"default_left":[0,0,0,0,0,0,0,0,0,0,0,0,0,0,0,0,0,0,0,0,0,0,0,0,0,0,0,0,0,0,0],"id":4,"left_children":[1,3,5,7,9,11,13,15,17,19,21,23,25,27,29,-1,-1,-1,-1,-1,-1,-1,-1,-1,-1,-1,-1,-1,-1,-1,-1],"loss_changes":[4.8111273E2,2.1562392E2,1.1730878E2,8.236785E1,6.956546E1,4.965368E1,2.6514618E1,2.4677198E1,2.5849342E1,3.4158783E0,2.9366821E1,2.6955063E1,3.6234703E1,1.11008E1,5.8492146E0,0E0,0E0,0E0,0E0,0E0,0E0,0E0,0E0,0E0,0E0,0E0,0E0,0E0,0E0,0E0,0E0],"parents":[2147483647,0,0,1,1,2,2,3,3,4,4,5,5,6,6,7,7,8,8,9,9,10,10,11,11,12,12,13,13,14,14],"right_children":[2,4,6,8,10,12,14,16,18,20,22,24,26,28,30,-1,-1,-1,-1,-1,-1,-1,-1,-1,-1,-1,-1,-1,-1,-1,-1],"split_conditions":[2E0,5E0,4E0,4E0,2E0,2E0,4E0,3E0,3E0,5E0,4E0,3E0,3E0,2E0,2E0,-9.3150255E-4,5.6064464E-3,-1.3055338E-3,-1.0264302E-2,-2.331675E-2,-3.186141E-2,-7.1210843E-3,-1.4964563E-2,9.115638E-3,2.136721E-2,6.2050985E-4,9.3030445E-3,3.240629E-2,2.1547392E-2,4.950158E-3,1.5617477E-2],"split_indices":[0,8,0,6,4,6,6,7,8,6,6,7,0,8,7,0,0,0,0,0,0,0,0,0,0,0,0,0,0,0,0],"split_type":[0,0,0,0,0,0,0,0,0,0,0,0,0,0,0,0,0,0,0,0,0,0,0,0,0,0,0,0,0,0,0],"sum_hessian":[1.0965E4,6.697E3,4.268E3,4.227E3,2.47E3,3.467E3,8.01E2,2.652E3,1.575E3,2.85E2,2.185E3,1.05E3,2.417E3,5.6E2,2.41E2,1.171E3,1.481E3,5.75E2,1E3,9.7E1,1.88E2,1.003E3,1.182E3,7.73E2,2.77E2,1.589E3,8.28E2,1.53E2,4.07E2,1.02E2,1.39E2],"tree_param":{"num_deleted":"0","num_feature":"9","num_nodes":"31","size_leaf_vector":"1"}},{"base_weights":[-5.85345E-3,-1.6806245E-1,2.5025147E-1,-1.859801E-2,-3.5118216E-1,4.4324586E-1,7.7093855E-2,1.5158206E-1,-1.407058E-1,-1.7312129E-1,-4.8945752E-1,3.5697848E-1,8.0856967E-1,7.5744563E-3,3.7443775E-1,1.051485E-2,2.7096088E-3,-8.265803E-3,-1.954953E-3,-2.6172718E-3,-8.879885E-3,-1.2308892E-2,-2.0386482E-2,1.7903062E-2,9.255696E-3,2.9856388E-2,1.3701507E-2,-1.6498701E-3,7.5097503E-3,2.109335E-2,9.648145E-3],"categories":[],"categories_nodes":[],"categories_segments":[],"categories_sizes":[],"default_left":[0,0,0,0,0,0,0,0,0,0,0,0,0,0,0,0,0,0,0,0,0,0,0,0,0,0,0,0,0,0,0],"id":5,"left_children":[1,3,5,7,9,11,13,15,17,19,21,23,25,27,29,-1,-1,-1,-1,-1,-1,-1,-1,-1,-1,-1,-1,-1,-1,-1,-1],"loss_changes":[4.5991776E2,1.8550658E2,1.4343121E2,7.759423E1,7.491214E1,6.3687866E1,4.6796688E1,1.7804062E1,1.8817795E1,1.15048485E1,2.4423035E1,2.3433517E1,1.1808685E1,2.239875E1,9.32193E0,0E0,0E0,0E0,0E0,0E0,0E0,0E0,0E0,0E0,0E0,0E0,0E0,0E0,0E0,0E0,0E0],"parents":[2147483647,0,0,1,1,2,2,3,3,4,4,5,5,6,6,7,7,8,8,9,9,10,10,11,11,12,12,13,13,14,14],"right_children":[2,4,6,8,10,12,14,16,18,20,22,24,26,28,30,-1,-1,-1,-1,-1,-1,-1,-1,-1,-1,-1,-1,-1,-1,-1,-1],"split_conditions":[2E0,4E0,2E0,2E0,2E0,4E0,4E0,2E0,3E0,5E0,5E0,2E0,5E0,3E0,2E0,1.051485E-2,2.7096088E-3,-8.265803E-3,-1.954953E-3,-2.6172718E-3,-8.879885E-3,-1.2308892E-2,-2.0386482E-2,1.7903062E-2,9.255696E-3,2.9856388E-2,1.3701507E-2,-1.6498701E-3,7.5097503E-3,2.109335E-2,9.648145E-3],"split_indices":[0,6,3,3,3,0,0,6,7,6,6,6,6,7,6,0,0,0,0,0,0,0,0,0,0,0,0,0,0,0,0],"split_type":[0,0,0,0,0,0,0,0,0,0,0,0,0,0,0,0,0,0,0,0,0,0,0,0,0,0,0,0,0,0,0],"sum_hessian":[1.1069E4,6.777E3,4.292E3,3.732E3,3.045E3,2.029E3,2.263E3,1.559E3,2.173E3,1.332E3,1.713E3,1.643E3,3.86E2,1.835E3,4.28E2,4.77E2,1.082E3,9.57E2,1.216E3,6.5E2,6.82E2,8.31E2,8.82E2,5.23E2,1.12E3,3.22E2,6.4E1,1.454E3,3.81E2,1.09E2,3.19E2],"tree_param":{"num_deleted":"0","num_feature":"9","num_nodes":"31","size_leaf_vector":"1"}},{"base_weights":[1.7243068E-3,-1.4135955E-1,2.7452597E-1,-7.3307026E-3,-3.8278583E-1,1.6372353E-1,4.5931587E-1,9.448433E-2,-1.8860225E-1,-2.8095308E-1,-5.762498E-1,8.186151E-2,5.195084E-1,3.8311347E-1,6.3200116E-1,-6.9165626E-4,6.385978E-3,-3.2736063E-3,-1.0178967E-2,-7.3262462E-3,-1.3171914E-2,-2.1227162E-2,-1.7531715E-2,5.1548425E-3,-2.0614762E-3,2.9184435E-2,1.2083961E-2,1.5424664E-2,7.788041E-3,3.2021075E-2,1.9215977E-2],"categories":[],"categories_nodes":[],"categories_segments":[],"categories_sizes":[],"default_left":[0,0,0,0,0,0,0,0,0,0,0,0,0,0,0,0,0,0,0,0,0,0,0,0,0,0,0,0,0,0,0],"id":6,"left_children":[1,3,5,7,9,11,13,15,17,19,21,23,25,27,29,-1,-1,-1,-1,-1,-1,-1,-1,-1,-1,-1,-1,-1,-1,-1,-1],"loss_changes":[4.2874393E2,2.331372E2,7.7300476E1,8.55437E1,5.0509003E1,6.8809616E1,1.8391083E1,3.2509315E1,1.7296272E1,1.1700455E1,2.340393E0,1.9618954E1,2.4343094E1,1.1117004E1,7.894882E0,0E0,0E0,0E0,0E0,0E0,0E0,0E0,0E0,0E0,0E0,0E0,0E0,0E0,0E0,0E0,0E0],"parents":[2147483647,0,0,1,1,2,2,3,3,4,4,5,5,6,6,7,7,8,8,9,9,10,10,11,11,12,12,13,13,14,14],"right_children":[2,4,6,8,10,12,14,16,18,20,22,24,26,28,30,-1,-1,-1,-1,-1,-1,-1,-1,-1,-1,-1,-1,-1,-1,-1,-1],"split_conditions":[2E0,5E0,3E0,4E0,5E0,3E0,4E0,3E0,5E0,4E0,7E0,4E0,2E0,4E0,2E0,-6.9165626E-4,6.385978E-3,-3.2736063E-3,-1.0178967E-2,-7.3262462E-3,-1.3171914E-2,-2.1227162E-2,-1.7531715E-2,5.1548425E-3,-2.0614762E-3,2.9184435E-2,1.2083961E-2,1.5424664E-2,7.788041E-3,3.2021075E-2,1.9215977E-2],"split_indices":[1,8,1,6,6,7,1,7,6,6,5,8,8,6,8,0,0,0,0,0,0,0,0,0,0,0,0,0,0,0,0],"split_type":[0,0,0,0,0,0,0,0,0,0,0,0,0,0,0,0,0,0,0,0,0,0,0,0,0,0,0,0,0,0,0],"sum_hessian":[1.0982E4,7.204E3,3.778E3,4.633E3,2.571E3,2.363E3,1.415E3,2.967E3,1.666E3,1.686E3,8.85E2,1.922E3,4.41E2,9.84E2,4.31E2,1.344E3,1.623E3,9.25E2,7.41E2,1.073E3,6.13E2,4.42E2,4.43E2,1.283E3,6.39E2,1.38E2,3.03E2,6.57E2,3.27E2,6.7E1,3.64E2],"tree_param":{"num_deleted":"0","num_feature":"9","num_nodes":"31","size_leaf_vector":"1"}},{"base_weights":[1.9462002E-4,-1.393082E-1,2.6297644E-1,-1.5016786E-2,-3.6383817E-1,1.2591462E-1,4.396496E-1,-1.1020404E-1,7.180423E-2,-5.2763796E-1,-3.210064E-1,5.8589756E-2,4.0734378E-1,3.3845204E-1,5.767161E-1,-5.127292E-3,3.227965E-4,5.6001623E-3,1.4654009E-4,-1.8923765E-2,1.6115604E-3,-1.1338902E-2,-3.8632434E-3,5.2000647E-3,-1.6895664E-4,2.5561329E-2,9.116678E-3,1.03640305E-2,1.7936712E-2,1.4660673E-2,2.3919236E-2],"categories":[],"categories_nodes":[],"categories_segments":[],"categories_sizes":[],"default_left":[0,0,0,0,0,0,0,0,0,0,0,0,0,0,0,0,0,0,0,0,0,0,0,0,0,0,0,0,0,0,0],"id":7,"left_children":[1,3,5,7,9,11,13,15,17,19,21,23,25,27,29,-1,-1,-1,-1,-1,-1,-1,-1,-1,-1,-1,-1,-1,-1,-1,-1],"loss_changes":[4.054097E2,2.015958E2,9.280972E1,3.844496E1,1.7889343E1,4.0920986E1,2.3038391E1,1.119276E1,1.5515348E1,1.0586243E1,6.6245575E0,1.0642836E1,1.9832657E1,5.5792694E0,1.3106522E1,0E0,0E0,0E0,0E0,0E0,0E0,0E0,0E0,0E0,0E0,0E0,0E0,0E0,0E0,0E0,0E0],"parents":[2147483647,0,0,1,1,2,2,3,3,4,4,5,5,6,6,7,7,8,8,9,9,10,10,11,11,12,12,13,13,14,14],"right_children":[2,4,6,8,10,12,14,16,18,20,22,24,26,28,30,-1,-1,-1,-1,-1,-1,-1,-1,-1,-1,-1,-1,-1,-1,-1,-1],"split_conditions":[2E0,5E0,3E0,3E0,2E0,3E0,4E0,2E0,3E0,3E0,2E0,3E0,2E0,3E0,2E0,-5.127292E-3,3.227965E-4,5.6001623E-3,1.4654009E-4,-1.8923765E-2,1.6115604E-3,-1.1338902E-2,-3.8632434E-3,5.2000647E-3,-1.6895664E-4,2.5561329E-2,9.116678E-3,1.03640305E-2,1.7936712E-2,1.4660673E-2,2.3919236E-2],"split_indices":[1,8,0,7,7,7,0,0,8,0,0,8,8,7,7,0,0,0,0,0,0,0,0,0,0,0,0,0,0,0,0],"split_type":[0,0,0,0,0,0,0,0,0,0,0,0,0,0,0,0,0,0,0,0,0,0,0,0,0,0,0,0,0,0,0],"sum_hessian":[1.1057E4,7.223E3,3.834E3,4.65E3,2.573E3,2.16E3,1.674E3,2.218E3,2.432E3,5.31E2,2.042E3,1.744E3,4.16E2,9.65E2,7.09E2,1.641E3,5.77E2,1.012E3,1.42E3,5.01E2,3E1,1.896E3,1.46E2,6.95E2,1.049E3,1.15E2,3.01E2,8.36E2,1.29E2,3.47E2,3.62E2],"tree_param":{"num_deleted":"0","num_feature":"9","num_nodes":"31","size_leaf_vector":"1"}},{"base_weights":[2.1576595E-4,-1.3698384E-1,2.5998414E-1,1.7587133E-2,-2.5209728E-1,4.5047677E-1,7.820758E-2,-1.7634727E-2,2.0337713E-1,-4.4571584E-1,-2.0270982E-1,3.7007293E-1,8.018433E-1,-4.9834173E-2,2.5389904E-1,-3.6671702E-3,1.6399637E-3,3.794815E-3,1.2370481E-2,-1.7666107E-2,-8.205418E-3,-8.259012E-3,-1.8814511E-3,1.153141E-2,2.859592E-2,2.5605796E-2,4.460631E-2,-3.8941656E-3,8.88464E-3,6.4204815E-3,1.7159285E-2],"categories":[],"categories_nodes":[],"categories_segments":[],"categories_sizes":[],"default_left":[0,0,0,0,0,0,0,0,0,0,0,0,0,0,0,0,0,0,0,0,0,0,0,0,0,0,0,0,0,0,0],"id":8,"left_children":[1,3,5,7,9,11,13,15,17,19,21,23,25,27,29,-1,-1,-1,-1,-1,-1,-1,-1,-1,-1,-1,-1,-1,-1,-1,-1],"loss_changes":[3.9453604E2,1.2889836E2,1.3244803E2,2.0243774E1,3.9612457E1,5.2476562E1,4.4082005E1,1.5761021E1,7.2918644E0,1.3331924E1,2.069989E1,1.9798233E1,6.4769287E0,2.345636E1,1.3252861E1,0E0,0E0,0E0,0E0,0E0,0E0,0E0,0E0,0E0,0E0,0E0,0E0,0E0,0E0,0E0,0E0],"parents":[2147483647,0,0,1,1,2,2,3,3,4,4,5,5,6,6,7,7,8,8,9,9,10,10,11,11,12,12,13,13,14,14],"right_children":[2,4,6,8,10,12,14,16,18,20,22,24,26,28,30,-1,-1,-1,-1,-1,-1,-1,-1,-1,-1,-1,-1,-1,-1,-1,-1],"split_conditions":[2E0,2E0,2E0,2E0,2E0,4E0,3E0,3E0,3E0,2E0,8E0,4E0,4E0,3E0,4E0,-3.6671702E-3,1.6399637E-3,3.794815E-3,1.2370481E-2,-1.7666107E-2,-8.205418E-3,-8.259012E-3,-1.8814511E-3,1.153141E-2,2.859592E-2,2.5605796E-2,4.460631E-2,-3.8941656E-3,8.88464E-3,6.4204815E-3,1.7159285E-2],"split_indices":[1,3,3,0,7,0,0,7,7,0,5,7,7,7,1,0,0,0,0,0,0,0,0,0,0,0,0,0,0,0,0],"split_type":[0,0,0,0,0,0,0,0,0,0,0,0,0,0,0,0,0,0,0,0,0,0,0,0,0,0,0,0,0,0,0],"sum_hessian":[1.1068E4,7.243E3,3.825E3,3.092E3,4.151E3,1.867E3,1.958E3,2.6E3,4.92E2,8.42E2,3.309E3,1.521E3,3.46E2,1.133E3,8.25E2,1.094E3,1.506E3,3.18E2,1.74E2,6.04E2,2.38E2,2.564E3,7.45E2,1.44E3,8.1E1,3.23E2,2.3E1,9.37E2,1.96E2,6.63E2,1.62E2],"tree_param":{"num_deleted":"0","num_feature":"9","num_nodes":"31","size_leaf_vector":"1"}},{"base_weights":[-2.4749008E-3,1.1054955E-1,-3.0003664E-1,2.7961084E-1,-3.3135034E-2,-1.10003635E-1,-4.3380073E-1,1.8643546E-1,5.812701E-1,-1.0039106E-1,2.3070018E-1,-1.6240455E-1,4.882484E-1,-4.6684888E-1,9.984547E-3,-6.5320573E-4,7.957376E-3,1.5889045E-2,2.5046293E-2,-7.391977E-5,-5.8095674E-3,4.641181E-3,1.2577094E-2,-8.730077E-3,1.8733097E-3,1.45430975E-2,2.716525E-2,-1.8315556E-2,-1.2216113E-2,-4.6669743E-3,2.5175244E-3],"categories":[],"categories_nodes":[],"categories_segments":[],"categories_sizes":[],"default_left":[0,0,0,0,0,0,0,0,0,0,0,0,0,0,0,0,0,0,0,0,0,0,0,0,0,0,0,0,0,0,0],"id":9,"left_children":[1,3,5,7,9,11,13,15,17,19,21,23,25,27,29,-1,-1,-1,-1,-1,-1,-1,-1,-1,-1,-1,-1,-1,-1,-1,-1],"loss_changes":[3.695789E2,1.9346678E2,7.684653E1,1.0273593E2,7.643101E1,3.9296837E1,2.6037323E1,2.875467E1,1.4996521E1,2.4325024E1,1.1556313E1,2.4339191E1,1.4619198E0,1.3064423E1,1.2044889E0,0E0,0E0,0E0,0E0,0E0,0E0,0E0,0E0,0E0,0E0,0E0,0E0,0E0,0E0,0E0,0E0],"parents":[2147483647,0,0,1,1,2,2,3,3,4,4,5,5,6,6,7,7,8,8,9,9,10,10,11,11,12,12,13,13,14,14],"right_children":[2,4,6,8,10,12,14,16,18,20,22,24,26,28,30,-1,-1,-1,-1,-1,-1,-1,-1,-1,-1,-1,-1,-1,-1,-1,-1],"split_conditions":[5E0,2E0,2E0,3E0,3E0,3E0,3E0,2E0,4E0,3E0,5E0,3E0,6E0,2E0,7E0,-6.5320573E-4,7.957376E-3,1.5889045E-2,2.5046293E-2,-7.391977E-5,-5.8095674E-3,4.641181E-3,1.2577094E-2,-8.730077E-3,1.8733097E-3,1.45430975E-2,2.716525E-2,-1.8315556E-2,-1.2216113E-2,-4.6669743E-3,2.5175244E-3],"split_indices":[8,3,3,0,0,0,0,2,0,8,2,2,2,2,5,0,0,0,0,0,0,0,0,0,0,0,0,0,0,0,0],"split_type":[0,0,0,0,0,0,0,0,0,0,0,0,0,0,0,0,0,0,0,0,0,0,0,0,0,0,0,0,0,0,0],"sum_hessian":[1.0987E4,7.963E3,3.024E3,3.658E3,4.305E3,1.25E3,1.774E3,2.796E3,8.62E2,3.431E3,8.74E2,1.15E3,1E2,1.651E3,1.23E2,5.46E2,2.25E3,5.18E2,3.44E2,1.454E3,1.977E3,5.31E2,3.43E2,7.96E2,3.54E2,8.7E1,1.3E1,9.45E2,7.06E2,3.7E1,8.6E1],"tree_param":{"num_deleted":"0","num_feature":"9","num_nodes":"31","size_leaf_vector":"1"}},{"base_weights":[-7.979147E-4,1.0354249E-1,-2.7473E-1,2.6613435E-1,-3.2820906E-2,-1.0273572E-1,-3.9966896E-1,1.8125685E-1,5.451618E-1,5.6535594E-2,-2.1669261E-1,-1.9102935E-1,2.5468373E-1,-2.9737282E-1,-6.0132486E-1,1.0818396E-2,1.7525959E-3,1.4444224E-2,2.3785658E-2,6.9481594E-4,1.4322123E-2,-1.7757899E-3,-1.098737E-2,-3.0446085E-3,-1.2933642E-2,3.8641503E-3,1.5284196E-2,-1.118185E-2,1.9161538E-3,-2.1082409E-2,-1.2640646E-3],"categories":[],"categories_nodes":[],"categories_segments":[],"categories_sizes":[],"default_left":[0,0,0,0,0,0,0,0,0,0,0,0,0,0,0,0,0,0,0,0,0,0,0,0,0,0,0,0,0,0,0],"id":10,"left_children":[1,3,5,7,9,11,13,15,17,19,21,23,25,27,29,-1,-1,-1,-1,-1,-1,-1,-1,-1,-1,-1,-1,-1,-1,-1,-1],"loss_changes":[3.136608E2,1.7620627E2,6.500548E1,8.5752625E1,7.103971E1,4.0284927E1,3.5983154E1,5.0320953E1,1.5529465E1,3.8525787E1,2.5409431E1,1.9842262E1,7.003111E0,1.4375E1,8.252686E0,0E0,0E0,0E0,0E0,0E0,0E0,0E0,0E0,0E0,0E0,0E0,0E0,0E0,0E0,0E0,0E0],"parents":[2147483647,0,0,1,1,2,2,3,3,4,4,5,5,6,6,7,7,8,8,9,9,10,10,11,11,12,12,13,13,14,14],"right_children":[2,4,6,8,10,12,14,16,18,20,22,24,26,28,30,-1,-1,-1,-1,-1,-1,-1,-1,-1,-1,-1,-1,-1,-1,-1,-1],"split_conditions":[5E0,2E0,2E0,3E0,4E0,2E0,5E0,3E0,4E0,4E0,3E0,5E0,3E0,3E0,3E0,1.0818396E-2,1.7525959E-3,1.4444224E-2,2.3785658E-2,6.9481594E-4,1.4322123E-2,-1.7757899E-3,-1.098737E-2,-3.0446085E-3,-1.2933642E-2,3.8641503E-3,1.5284196E-2,-1.118185E-2,1.9161538E-3,-2.1082409E-2,-1.2640646E-3],"split_indices":[8,3,3,0,6,0,6,6,0,0,8,6,0,0,0,0,0,0,0,0,0,0,0,0,0,0,0,0,0,0,0],"split_type":[0,0,0,0,0,0,0,0,0,0,0,0,0,0,0,0,0,0,0,0,0,0,0,0,0,0,0,0,0,0,0],"sum_hessian":[1.0972E4,7.946E3,3.026E3,3.624E3,4.322E3,1.274E3,1.752E3,2.78E3,8.44E2,2.909E3,1.413E3,1.022E3,2.52E2,1.164E3,5.88E2,1.333E3,1.447E3,4.93E2,3.51E2,2.652E3,2.57E2,5.67E2,8.46E2,6.73E2,3.49E2,1.49E2,1.03E2,1.06E3,1.04E2,5.63E2,2.5E1],"tree_param":{"num_deleted":"0","num_feature":"9","num_nodes":"31","size_leaf_vector":"1"}},{"base_weights":[3.6308009E-3,-1.1754029E-1,2.3118731E-1,-2.9836044E-1,-1.561074E-2,3.922595E-1,7.9987854E-2,-7.1532226E-1,-2.4068521E-1,1.3944273E-1,-1.3268231E-1,2.9821613E-1,5.4217637E-1,1.0664279E-2,3.4649876E-1,-1.852755E-2,-2.9013628E-2,-3.9418493E-3,-1.1164349E-2,3.7819738E-3,1.6592491E-2,-1.6609333E-2,-4.0062545E-3,-1.0290978E-2,1.0506072E-2,1.506601E-2,2.1378087E-2,-1.3088726E-3,4.696979E-3,8.391985E-3,2.0505285E-2],"categories":[],"categories_nodes":[],"categories_segments":[],"categories_sizes":[],"default_left":[0,0,0,0,0,0,0,0,0,0,0,0,0,0,0,0,0,0,0,0,0,0,0,0,0,0,0,0,0,0,0],"id":11,"left_children":[1,3,5,7,9,11,13,15,17,19,21,23,25,27,29,-1,-1,-1,-1,-1,-1,-1,-1,-1,-1,-1,-1,-1,-1,-1,-1],"loss_changes":[3.0242328E2,1.3190543E2,9.278183E1,6.1872604E1,8.311997E1,2.5850403E1,3.6337593E1,7.0911865E0,2.5455154E1,1.8813408E1,1.2812416E1,9.606934E0,5.9553986E0,9.9775E0,1.0213226E1,0E0,0E0,0E0,0E0,0E0,0E0,0E0,0E0,0E0,0E0,0E0,0E0,0E0,0E0,0E0,0E0],"parents":[2147483647,0,0,1,1,2,2,3,3,4,4,5,5,6,6,7,7,8,8,9,9,10,10,11,11,12,12,13,13,14,14],"right_children":[2,4,6,8,10,12,14,16,18,20,22,24,26,28,30,-1,-1,-1,-1,-1,-1,-1,-1,-1,-1,-1,-1,-1,-1,-1,-1],"split_conditions":[2E0,2E0,2E0,2E0,2E0,3E0,5E0,2E0,2E0,5E0,2E0,2E0,4E0,3E0,4E0,-1.852755E-2,-2.9013628E-2,-3.9418493E-3,-1.1164349E-2,3.7819738E-3,1.6592491E-2,-1.6609333E-2,-4.0062545E-3,-1.0290978E-2,1.0506072E-2,1.506601E-2,2.1378087E-2,-1.3088726E-3,4.696979E-3,8.391985E-3,2.0505285E-2],"split_indices":[1,2,3,4,3,1,2,3,3,2,4,4,2,1,1,0,0,0,0,0,0,0,0,0,0,0,0,0,0,0,0],"split_type":[0,0,0,0,0,0,0,0,0,0,0,0,0,0,0,0,0,0,0,0,0,0,0,0,0,0,0,0,0,0,0],"sum_hessian":[1.0966E4,7.156E3,3.81E3,2.579E3,4.577E3,1.844E3,1.966E3,3.12E2,2.267E3,1.969E3,2.608E3,1.135E3,7.09E2,1.561E3,4.05E2,1.49E2,1.63E2,9.62E2,1.305E3,1.83E3,1.39E2,9.4E1,2.514E3,2.5E1,1.11E3,3.54E2,3.55E2,1.128E3,4.33E2,2.97E2,1.08E2],"tree_param":{"num_deleted":"0","num_feature":"9","num_nodes":"31","size_leaf_vector":"1"}},{"base_weights":[1.4142288E-3,1.0241578E-1,-2.6194942E-1,2.5190136E-1,-2.2729704E-2,-6.9825566E-1,-2.110947E-1,2.1084374E-1,5.709275E-1,-6.1851732E-2,2.8940436E-1,-4.944418E-1,-8.4895927E-1,-4.2511348E-2,-3.3103386E-1,4.339957E-4,8.496146E-3,2.3985049E-2,1.4698103E-2,-4.537279E-4,-6.510697E-3,1.7362636E-2,7.2935643E-3,-1.8501181E-2,-1.1635493E-2,-3.0530628E-2,-2.214877E-2,-5.8989166E-3,3.3468185E-3,-1.235684E-2,-5.0761417E-4],"categories":[],"categories_nodes":[],"categories_segments":[],"categories_sizes":[],"default_left":[0,0,0,0,0,0,0,0,0,0,0,0,0,0,0,0,0,0,0,0,0,0,0,0,0,0,0,0,0,0,0],"id":12,"left_children":[1,3,5,7,9,11,13,15,17,19,21,23,25,27,29,-1,-1,-1,-1,-1,-1,-1,-1,-1,-1,-1,-1,-1,-1,-1,-1],"loss_changes":[2.936392E2,1.4927243E2,6.77486E1,4.7505585E1,5.306386E1,9.378464E0,5.542845E1,2.649437E1,7.56015E0,2.4566631E1,7.8582993E0,9.4224167E-1,1.4180145E0,2.1509193E1,1.8228073E1,0E0,0E0,0E0,0E0,0E0,0E0,0E0,0E0,0E0,0E0,0E0,0E0,0E0,0E0,0E0,0E0],"parents":[2147483647,0,0,1,1,2,2,3,3,4,4,5,5,6,6,7,7,8,8,9,9,10,10,11,11,12,12,13,13,14,14],"right_children":[2,4,6,8,10,12,14,16,18,20,22,24,26,28,30,-1,-1,-1,-1,-1,-1,-1,-1,-1,-1,-1,-1,-1,-1,-1,-1],"split_conditions":[5E0,2E0,2E0,5E0,5E0,2E0,2E0,2E0,3E0,4E0,2E0,2E0,2E0,2E0,4E0,4.339957E-4,8.496146E-3,2.3985049E-2,1.4698103E-2,-4.537279E-4,-6.510697E-3,1.7362636E-2,7.2935643E-3,-1.8501181E-2,-1.1635493E-2,-3.0530628E-2,-2.214877E-2,-5.8989166E-3,3.3468185E-3,-1.235684E-2,-5.0761417E-4],"split_indices":[8,3,4,2,2,3,3,2,8,8,8,2,2,2,2,0,0,0,0,0,0,0,0,0,0,0,0,0,0,0,0],"split_type":[0,0,0,0,0,0,0,0,0,0,0,0,0,0,0,0,0,0,0,0,0,0,0,0,0,0,0,0,0,0,0],"sum_hessian":[1.1037E4,7.978E3,3.059E3,3.635E3,4.343E3,3.18E2,2.741E3,3.222E3,4.13E2,3.86E3,4.83E2,1.37E2,1.81E2,1.14E3,1.601E3,5.59E2,2.663E3,1.99E2,2.14E2,2.823E3,1.037E3,1.16E2,3.67E2,9.8E1,3.9E1,1.36E2,4.5E1,5.89E2,5.51E2,1.437E3,1.64E2],"tree_param":{"num_deleted":"0","num_feature":"9","num_nodes":"31","size_leaf_vector":"1"}},{"base_weights":[-4.3364824E-3,-1.3505703E-1,2.0058846E-1,-1.8535942E-3,-3.0088562E-1,3.5899213E-1,5.8278643E-2,6.798205E-2,-1.8011476E-1,-1.04027875E-1,-4.0359333E-1,2.8556955E-1,6.736814E-1,-1.1993306E-4,2.7617857E-1,6.240282E-3,-6.38367E-4,-8.8390155E-4,-9.501545E-3,1.3992664E-3,-7.5643933E-3,-8.463462E-3,-1.7403748E-2,1.4773318E-2,7.176404E-3,2.5143035E-2,1.0610042E-2,-3.8140893E-3,4.516919E-3,2.0590315E-2,5.3915223E-3],"categories":[],"categories_nodes":[],"categories_segments":[],"categories_sizes":[],"default_left":[0,0,0,0,0,0,0,0,0,0,0,0,0,0,0,0,0,0,0,0,0,0,0,0,0,0,0,0,0,0,0],"id":13,"left_children":[1,3,5,7,9,11,13,15,17,19,21,23,25,27,29,-1,-1,-1,-1,-1,-1,-1,-1,-1,-1,-1,-1,-1,-1,-1,-1],"loss_changes":[2.9638165E2,1.4921024E2,9.711427E1,4.665858E1,6.0796417E1,4.691931E1,2.8898613E1,2.7488062E1,1.6569862E1,1.8157902E1,3.3983643E1,1.8270401E1,9.866409E0,2.725174E1,1.8583984E1,0E0,0E0,0E0,0E0,0E0,0E0,0E0,0E0,0E0,0E0,0E0,0E0,0E0,0E0,0E0,0E0],"parents":[2147483647,0,0,1,1,2,2,3,3,4,4,5,5,6,6,7,7,8,8,9,9,10,10,11,11,12,12,13,13,14,14],"right_children":[2,4,6,8,10,12,14,16,18,20,22,24,26,28,30,-1,-1,-1,-1,-1,-1,-1,-1,-1,-1,-1,-1,-1,-1,-1,-1],"split_conditions":[2E0,4E0,2E0,5E0,4E0,4E0,3E0,2E0,2E0,2E0,2E0,2E0,5E0,3E0,2E0,6.240282E-3,-6.38367E-4,-8.8390155E-4,-9.501545E-3,1.3992664E-3,-7.5643933E-3,-8.463462E-3,-1.7403748E-2,1.4773318E-2,7.176404E-3,2.5143035E-2,1.0610042E-2,-3.8140893E-3,4.516919E-3,2.0590315E-2,5.3915223E-3],"split_indices":[0,6,3,8,8,0,7,3,3,3,3,6,6,0,8,0,0,0,0,0,0,0,0,0,0,0,0,0,0,0,0],"split_type":[0,0,0,0,0,0,0,0,0,0,0,0,0,0,0,0,0,0,0,0,0,0,0,0,0,0,0,0,0,0,0],"sum_hessian":[1.1062E4,6.754E3,4.308E3,3.746E3,3.008E3,2.038E3,2.27E3,2.692E3,1.054E3,1.032E3,1.976E3,1.654E3,3.84E2,1.791E3,4.79E2,1.145E3,1.547E3,4.21E2,6.33E2,4.68E2,5.64E2,8.45E2,1.131E3,5.29E2,1.125E3,3.18E2,6.6E1,9.72E2,8.19E2,1.22E2,3.57E2],"tree_param":{"num_deleted":"0","num_feature":"9","num_nodes":"31","size_leaf_vector":"1"}},{"base_weights":[-7.999835E-4,-1.158164E-1,2.1556418E-1,-6.115018E-1,-7.94666E-2,1.2381563E-1,3.7025493E-1,-7.154142E-1,-4.1164666E-1,-2.308062E-1,1.1165601E-3,6.089642E-2,3.9402702E-1,3.2711595E-1,5.9705156E-1,-2.747781E-2,-2.0667918E-2,-1.6866824E-2,-9.382479E-3,-1.0506355E-2,-6.030209E-3,-3.3344612E-3,3.5619675E-3,1.7641761E-4,5.169139E-3,1.2810241E-3,1.4707926E-2,9.044785E-3,1.5552592E-2,1.6540166E-2,3.1196292E-2],"categories":[],"categories_nodes":[],"categories_segments":[],"categories_sizes":[],"default_left":[0,0,0,0,0,0,0,0,0,0,0,0,0,0,0,0,0,0,0,0,0,0,0,0,0,0,0,0,0,0,0],"id":14,"left_children":[1,3,5,7,9,11,13,15,17,19,21,23,25,27,29,-1,-1,-1,-1,-1,-1,-1,-1,-1,-1,-1,-1,-1,-1,-1,-1],"loss_changes":[2.751085E2,1.3000577E2,5.441136E1,9.943863E0,8.2026665E1,4.0949593E1,1.377594E1,2.8031158E0,1.8922176E0,9.761162E0,4.6046078E1,1.00855465E1,6.92675E0,9.35025E0,7.455963E0,0E0,0E0,0E0,0E0,0E0,0E0,0E0,0E0,0E0,0E0,0E0,0E0,0E0,0E0,0E0,0E0],"parents":[2147483647,0,0,1,1,2,2,3,3,4,4,5,5,6,6,7,7,8,8,9,9,10,10,11,11,12,12,13,13,14,14],"right_children":[2,4,6,8,10,12,14,16,18,20,22,24,26,28,30,-1,-1,-1,-1,-1,-1,-1,-1,-1,-1,-1,-1,-1,-1,-1,-1],"split_conditions":[2E0,2E0,3E0,2E0,2E0,3E0,3E0,3E0,3E0,3E0,3E0,2E0,2E0,4E0,6E0,-2.747781E-2,-2.0667918E-2,-1.6866824E-2,-9.382479E-3,-1.0506355E-2,-6.030209E-3,-3.3344612E-3,3.5619675E-3,1.7641761E-4,5.169139E-3,1.2810241E-3,1.4707926E-2,9.044785E-3,1.5552592E-2,1.6540166E-2,3.1196292E-2],"split_indices":[1,4,1,2,2,7,7,7,7,7,7,7,2,1,2,0,0,0,0,0,0,0,0,0,0,0,0,0,0,0,0],"split_type":[0,0,0,0,0,0,0,0,0,0,0,0,0,0,0,0,0,0,0,0,0,0,0,0,0,0,0,0,0,0,0],"sum_hessian":[1.1053E4,7.217E3,3.836E3,4.92E2,6.725E3,2.409E3,1.427E3,3.22E2,1.7E2,2.336E3,4.389E3,1.955E3,4.54E2,1.201E3,2.26E2,1.58E2,1.64E2,1E2,7E1,9.06E2,1.43E3,2.243E3,2.146E3,1.222E3,7.33E2,4.9E1,4.05E2,8.4E2,3.61E2,1.73E2,5.3E1],"tree_param":{"num_deleted":"0","num_feature":"9","num_nodes":"31","size_leaf_vector":"1"}},{"base_weights":[-9.760654E-5,-1.2257967E-1,1.9434954E-1,-1.2830528E-3,-2.7191994E-1,1.3446459E-1,4.426653E-1,-1.2092604E-1,6.128262E-2,-4.2162478E-1,-1.5876564E-1,2.818963E-1,6.9475956E-2,5.258192E-1,2.4628633E-1,-1.6030977E-2,-3.5907708E-3,-1.0141575E-3,4.8527974E-3,-2.28044E-2,-1.2120007E-2,-1.6719084E-2,-4.655113E-3,6.735846E-3,1.6963731E-2,1.4483654E-4,6.625821E-3,1.4029051E-2,2.135074E-2,1.8395481E-3,1.2741619E-2],"categories":[],"categories_nodes":[],"categories_segments":[],"categories_sizes":[],"default_left":[0,0,0,0,0,0,0,0,0,0,0,0,0,0,0,0,0,0,0,0,0,0,0,0,0,0,0,0,0,0,0],"id":15,"left_children":[1,3,5,7,9,11,13,15,17,19,21,23,25,27,29,-1,-1,-1,-1,-1,-1,-1,-1,-1,-1,-1,-1,-1,-1,-1,-1],"loss_changes":[2.6147903E2,1.22018715E2,6.3035492E1,2.7838661E1,5.1074142E1,3.274874E1,1.3326141E1,6.420038E0,1.8502138E1,2.0223694E1,1.1843754E1,1.8896973E1,1.9710178E1,6.570709E0,6.2371435E0,0E0,0E0,0E0,0E0,0E0,0E0,0E0,0E0,0E0,0E0,0E0,0E0,0E0,0E0,0E0,0E0],"parents":[2147483647,0,0,1,1,2,2,3,3,4,4,5,5,6,6,7,7,8,8,9,9,10,10,11,11,12,12,13,13,14,14],"right_children":[2,4,6,8,10,12,14,16,18,20,22,24,26,28,30,-1,-1,-1,-1,-1,-1,-1,-1,-1,-1,-1,-1,-1,-1,-1,-1],"split_conditions":[2E0,4E0,4E0,2E0,2E0,2E0,4E0,2E0,3E0,2E0,2E0,3E0,3E0,2E0,2E0,-1.6030977E-2,-3.5907708E-3,-1.0141575E-3,4.8527974E-3,-2.28044E-2,-1.2120007E-2,-1.6719084E-2,-4.655113E-3,6.735846E-3,1.6963731E-2,1.4483654E-4,6.625821E-3,1.4029051E-2,2.135074E-2,1.8395481E-3,1.2741619E-2],"split_indices":[0,6,0,2,2,6,6,4,7,4,4,7,0,7,7,0,0,0,0,0,0,0,0,0,0,0,0,0,0,0,0],"split_type":[0,0,0,0,0,0,0,0,0,0,0,0,0,0,0,0,0,0,0,0,0,0,0,0,0,0,0,0,0,0,0],"sum_hessian":[1.0977E4,6.735E3,4.242E3,3.717E3,3.018E3,3.419E3,8.23E2,1.276E3,2.441E3,1.298E3,1.72E3,1.045E3,2.374E3,5.77E2,2.46E2,4.8E1,1.228E3,1.161E3,1.28E3,2.5E2,1.048E3,9.7E1,1.623E3,7.65E2,2.8E2,1.571E3,8.03E2,2.9E2,2.87E2,1.01E2,1.45E2],"tree_param":{"num_deleted":"0","num_feature":"9","num_nodes":"31","size_leaf_vector":"1"}},{"base_weights":[2.3792726E-3,-1.1578223E-1,1.8994062E-1,6.1084423E-3,-2.6595873E-1,3.3865967E-1,5.9217945E-2,1.356796E-1,-8.833577E-2,-6.121868E-1,-2.1844444E-1,2.7980137E-1,5.8050144E-1,2.4049426E-3,2.931484E-1,8.869819E-3,2.6132495E-3,-6.865191E-3,-7.6857465E-4,-1.5021723E-2,-2.5321512E-2,-2.6534272E-3,-1.09808035E-2,1.4516268E-2,6.930849E-3,2.291122E-2,1.1734494E-2,2.2305031E-3,-4.750862E-3,1.7760588E-2,7.168555E-3],"categories":[],"categories_nodes":[],"categories_segments":[],"categories_sizes":[],"default_left":[0,0,0,0,0,0,0,0,0,0,0,0,0,0,0,0,0,0,0,0,0,0,0,0,0,0,0,0,0,0,0],"id":16,"left_children":[1,3,5,7,9,11,13,15,17,19,21,23,25,27,29,-1,-1,-1,-1,-1,-1,-1,-1,-1,-1,-1,-1,-1,-1,-1,-1],"loss_changes":[2.435882E2,1.23433014E2,8.2565125E1,4.557125E1,4.956404E1,2.8121323E1,3.0061934E1,1.1627445E1,1.6305397E1,8.12117E0,3.995833E1,1.7818237E1,8.768112E0,1.6697937E1,8.198517E0,0E0,0E0,0E0,0E0,0E0,0E0,0E0,0E0,0E0,0E0,0E0,0E0,0E0,0E0,0E0,0E0],"parents":[2147483647,0,0,1,1,2,2,3,3,4,4,5,5,6,6,7,7,8,8,9,9,10,10,11,11,12,12,13,13,14,14],"right_children":[2,4,6,8,10,12,14,16,18,20,22,24,26,28,30,-1,-1,-1,-1,-1,-1,-1,-1,-1,-1,-1,-1,-1,-1,-1,-1],"split_conditions":[2E0,4E0,2E0,2E0,2E0,4E0,4E0,2E0,2E0,2E0,2E0,2E0,4E0,4E0,2E0,8.869819E-3,2.6132495E-3,-6.865191E-3,-7.6857465E-4,-1.5021723E-2,-2.5321512E-2,-2.6534272E-3,-1.09808035E-2,1.4516268E-2,6.930849E-3,2.291122E-2,1.1734494E-2,2.2305031E-3,-4.750862E-3,1.7760588E-2,7.168555E-3],"split_indices":[0,6,3,3,4,0,0,6,2,3,3,6,6,6,6,0,0,0,0,0,0,0,0,0,0,0,0,0,0,0,0],"split_type":[0,0,0,0,0,0,0,0,0,0,0,0,0,0,0,0,0,0,0,0,0,0,0,0,0,0,0,0,0,0,0],"sum_hessian":[1.0989E4,6.742E3,4.247E3,3.722E3,3.02E3,1.986E3,2.261E3,1.569E3,2.153E3,3.63E2,2.657E3,1.599E3,3.87E2,1.82E3,4.41E2,4.89E2,1.08E3,7.78E2,1.375E3,1.68E2,1.95E2,1.158E3,1.499E3,5.23E2,1.076E3,2.69E2,1.18E2,1.26E3,5.6E2,1.11E2,3.3E2],"tree_param":{"num_deleted":"0","num_feature":"9","num_nodes":"31","size_leaf_vector":"1"}},{"base_weights":[1.1578636E-3,-2.3316054E-1,8.658388E-2,-1.26746E-1,-4.545663E-1,2.3161374E-1,-3.229597E-2,-7.580144E-3,-2.1380216E-1,-6.668649E-1,-3.8610774E-1,4.248012E-1,1.6450359E-1,5.3012278E-2,-1.8296394E-1,-1.0963039E-2,4.8079624E-4,-4.562058E-3,-1.0468842E-2,-1.820044E-2,-2.636476E-2,-8.708413E-3,-1.6270233E-2,1.306733E-2,2.2730017E-2,4.3304637E-3,1.3615734E-2,5.9489766E-4,9.589524E-3,-1.9709695E-2,-5.4805237E-3],"categories":[],"categories_nodes":[],"categories_segments":[],"categories_sizes":[],"default_left":[0,0,0,0,0,0,0,0,0,0,0,0,0,0,0,0,0,0,0,0,0,0,0,0,0,0,0,0,0,0,0],"id":17,"left_children":[1,3,5,7,9,11,13,15,17,19,21,23,25,27,29,-1,-1,-1,-1,-1,-1,-1,-1,-1,-1,-1,-1,-1,-1,-1,-1],"loss_changes":[2.2004582E2,6.914043E1,1.3890201E2,2.059101E1,1.3593079E1,4.6979538E1,5.692376E1,5.838867E0,8.683506E0,2.9674911E0,8.829567E0,8.315598E0,2.3142517E1,2.316629E1,1.2900089E1,0E0,0E0,0E0,0E0,0E0,0E0,0E0,0E0,0E0,0E0,0E0,0E0,0E0,0E0,0E0,0E0],"parents":[2147483647,0,0,1,1,2,2,3,3,4,4,5,5,6,6,7,7,8,8,9,9,10,10,11,11,12,12,13,13,14,14],"right_children":[2,4,6,8,10,12,14,16,18,20,22,24,26,28,30,-1,-1,-1,-1,-1,-1,-1,-1,-1,-1,-1,-1,-1,-1,-1,-1],"split_conditions":[2E0,5E0,2E0,2E0,2E0,2E0,4E0,2E0,3E0,2E0,2E0,5E0,5E0,5E0,2E0,-1.0963039E-2,4.8079624E-4,-4.562058E-3,-1.0468842E-2,-1.820044E-2,-2.636476E-2,-8.708413E-3,-1.6270233E-2,1.306733E-2,2.2730017E-2,4.3304637E-3,1.3615734E-2,5.9489766E-4,9.589524E-3,-1.9709695E-2,-5.4805237E-3],"split_indices":[2,6,3,3,4,6,6,4,6,3,3,2,2,2,4,0,0,0,0,0,0,0,0,0,0,0,0,0,0,0,0],"split_type":[0,0,0,0,0,0,0,0,0,0,0,0,0,0,0,0,0,0,0,0,0,0,0,0,0,0,0,0,0,0,0],"sum_hessian":[1.0991E4,2.936E3,8.055E3,1.984E3,9.52E2,3.628E3,4.427E3,8.38E2,1.146E3,2.3E2,7.22E2,9.34E2,2.694E3,2.827E3,1.6E3,5.3E1,7.85E2,6.36E2,5.1E2,1.13E2,1.17E2,3.14E2,4.08E2,8.17E2,1.17E2,2.345E3,3.49E2,2.454E3,3.73E2,7.5E1,1.525E3],"tree_param":{"num_deleted":"0","num_feature":"9","num_nodes":"31","size_leaf_vector":"1"}},{"base_weights":[-6.423648E-3,-7.266649E-2,2.966847E-1,3.142173E-2,-2.2214848E-1,3.677847E-1,1.4272809E-1,-9.7154476E-2,7.9732746E-2,-3.8138825E-1,-1.223364E-1,2.7506137E-1,4.9504158E-1,1.720889E-2,2.6504552E-1,-1.2275814E-2,-2.9374252E-3,3.1797645E-5,6.3873758E-3,-2.2079492E-2,-1.0637281E-2,-1.3517082E-2,-3.6170955E-3,7.9066055E-3,1.6317649E-2,1.3036454E-2,1.9912157E-2,-1.0074642E-2,1.0390716E-3,-1.1334761E-2,9.820306E-3],"categories":[],"categories_nodes":[],"categories_segments":[],"categories_sizes":[],"default_left":[0,0,0,0,0,0,0,0,0,0,0,0,0,0,0,0,0,0,0,0,0,0,0,0,0,0,0,0,0,0,0],"id":18,"left_children":[1,3,5,7,9,11,13,15,17,19,21,23,25,27,29,-1,-1,-1,-1,-1,-1,-1,-1,-1,-1,-1,-1,-1,-1,-1,-1],"loss_changes":[2.2267491E2,1.416123E2,2.1719727E1,3.3339447E1,5.9333527E1,1.5911407E1,9.667944E0,3.8500261E0,3.38095E1,2.5628067E1,9.510693E0,6.535385E0,5.717697E0,1.3576784E0,5.216627E0,0E0,0E0,0E0,0E0,0E0,0E0,0E0,0E0,0E0,0E0,0E0,0E0,0E0,0E0,0E0,0E0],"parents":[2147483647,0,0,1,1,2,2,3,3,4,4,5,5,6,6,7,7,8,8,9,9,10,10,11,11,12,12,13,13,14,14],"right_children":[2,4,6,8,10,12,14,16,18,20,22,24,26,28,30,-1,-1,-1,-1,-1,-1,-1,-1,-1,-1,-1,-1,-1,-1,-1,-1],"split_conditions":[3E0,4E0,4E0,2E0,2E0,4E0,2E0,2E0,3E0,2E0,2E0,3E0,2E0,2E0,2E0,-1.2275814E-2,-2.9374252E-3,3.1797645E-5,6.3873758E-3,-2.2079492E-2,-1.0637281E-2,-1.3517082E-2,-3.6170955E-3,7.9066055E-3,1.6317649E-2,1.3036454E-2,1.9912157E-2,-1.0074642E-2,1.0390716E-3,-1.1334761E-2,9.820306E-3],"split_indices":[0,6,6,2,2,0,7,4,7,4,4,7,7,2,4,0,0,0,0,0,0,0,0,0,0,0,0,0,0,0,0],"split_type":[0,0,0,0,0,0,0,0,0,0,0,0,0,0,0,0,0,0,0,0,0,0,0,0,0,0,0,0,0,0,0],"sum_hessian":[1.1088E4,9.1E3,1.988E3,5.365E3,3.735E3,1.359E3,6.29E2,1.465E3,3.9E3,1.438E3,2.297E3,7.88E2,5.71E2,3.11E2,3.18E2,5.1E1,1.414E3,2.273E3,1.627E3,2.75E2,1.163E3,1.15E2,2.182E3,6.63E2,1.25E2,2.72E2,2.99E2,1.2E1,2.99E2,1.3E1,3.05E2],"tree_param":{"num_deleted":"0","num_feature":"9","num_nodes":"31","size_leaf_vector":"1"}},{"base_weights":[3.1951843E-3,-1.0183321E-1,2.0054123E-1,2.206576E-2,-1.9428882E-1,3.42384E-1,6.6452675E-2,-1.2296341E-1,1.06710784E-1,-3.219463E-1,-1.2183679E-1,2.3548631E-1,4.7066087E-1,1.2118846E-2,3.2844087E-1,-7.429035E-3,-2.1543824E-3,8.5964025E-4,6.332688E-3,-1.8832669E-2,-9.401369E-3,-1.0637431E-2,-2.000832E-3,5.781899E-3,1.6439768E-2,1.2010839E-2,2.0049984E-2,-2.8545272E-3,4.839111E-3,8.223273E-3,1.9394105E-2],"categories":[],"categories_nodes":[],"categories_segments":[],"categories_sizes":[],"default_left":[0,0,0,0,0,0,0,0,0,0,0,0,0,0,0,0,0,0,0,0,0,0,0,0,0,0,0,0,0,0,0],"id":19,"left_children":[1,3,5,7,9,11,13,15,17,19,21,23,25,27,29,-1,-1,-1,-1,-1,-1,-1,-1,-1,-1,-1,-1,-1,-1,-1,-1],"loss_changes":[2.2830693E2,8.235538E1,7.2745804E1,3.773726E1,3.8039078E1,2.5380707E1,2.801015E1,6.514248E0,1.2820744E1,1.494574E1,3.1819923E1,1.628992E1,1.1794281E1,2.0817421E1,6.9050064E0,0E0,0E0,0E0,0E0,0E0,0E0,0E0,0E0,0E0,0E0,0E0,0E0,0E0,0E0,0E0,0E0],"parents":[2147483647,0,0,1,1,2,2,3,3,4,4,5,5,6,6,7,7,8,8,9,9,10,10,11,11,12,12,13,13,14,14],"right_children":[2,4,6,8,10,12,14,16,18,20,22,24,26,28,30,-1,-1,-1,-1,-1,-1,-1,-1,-1,-1,-1,-1,-1,-1,-1,-1],"split_conditions":[2E0,2E0,2E0,2E0,2E0,3E0,3E0,3E0,3E0,2E0,2E0,3E0,2E0,3E0,5E0,-7.429035E-3,-2.1543824E-3,8.5964025E-4,6.332688E-3,-1.8832669E-2,-9.401369E-3,-1.0637431E-2,-2.000832E-3,5.781899E-3,1.6439768E-2,1.2010839E-2,2.0049984E-2,-2.8545272E-3,4.839111E-3,8.223273E-3,1.9394105E-2],"split_indices":[1,3,3,2,2,0,7,7,7,7,7,7,7,0,2,0,0,0,0,0,0,0,0,0,0,0,0,0,0,0,0],"split_type":[0,0,0,0,0,0,0,0,0,0,0,0,0,0,0,0,0,0,0,0,0,0,0,0,0,0,0,0,0,0,0],"sum_hessian":[1.1013E4,7.188E3,3.825E3,3.072E3,4.116E3,1.858E3,1.967E3,1.132E3,1.94E3,1.489E3,2.627E3,1.015E3,8.43E2,1.63E3,3.37E2,4.25E2,7.07E2,9.72E2,9.68E2,2.25E2,1.264E3,6.38E2,1.989E3,8.12E2,2.03E2,4.43E2,4E2,9.39E2,6.91E2,2.53E2,8.4E1],"tree_param":{"num_deleted":"0","num_feature":"9","num_nodes":"31","size_leaf_vector":"1"}},{"base_weights":[6.1754286E-3,-9.331692E-2,1.9422844E-1,2.1340873E-2,-2.3941287E-1,1.1416866E-1,3.297293E-1,-9.555184E-2,7.595946E-2,-3.7049514E-1,-1.4147463E-1,5.2376896E-2,3.745205E-1,2.7125645E-1,4.6140918E-1,-1.4171591E-2,-2.7532286E-3,-5.3138117E-4,5.5489154E-3,-2.0198869E-2,-1.0495514E-2,-1.0088744E-2,-2.9007674E-3,5.4005645E-3,2.1949712E-4,1.868704E-2,7.5163883E-3,7.203491E-3,1.2095379E-2,1.798806E-2,1.0716825E-2],"categories":[],"categories_nodes":[],"categories_segments":[],"categories_sizes":[],"default_left":[0,0,0,0,0,0,0,0,0,0,0,0,0,0,0,0,0,0,0,0,0,0,0,0,0,0,0,0,0,0,0],"id":20,"left_children":[1,3,5,7,9,11,13,15,17,19,21,23,25,27,29,-1,-1,-1,-1,-1,-1,-1,-1,-1,-1,-1,-1,-1,-1,-1,-1],"loss_changes":[2.0623795E2,1.2076335E2,4.1337265E1,2.5800695E1,4.0643936E1,3.8574535E1,1.0777618E1,5.731598E0,2.245673E1,1.8076431E1,1.5864605E1,9.610933E0,1.2439308E1,4.8798447E0,4.3577576E0,0E0,0E0,0E0,0E0,0E0,0E0,0E0,0E0,0E0,0E0,0E0,0E0,0E0,0E0,0E0,0E0],"parents":[2147483647,0,0,1,1,2,2,3,3,4,4,5,5,6,6,7,7,8,8,9,9,10,10,11,11,12,12,13,13,14,14],"right_children":[2,4,6,8,10,12,14,16,18,20,22,24,26,28,30,-1,-1,-1,-1,-1,-1,-1,-1,-1,-1,-1,-1,-1,-1,-1,-1],"split_conditions":[2E0,4E0,3E0,2E0,2E0,3E0,4E0,2E0,3E0,2E0,2E0,2E0,2E0,2E0,4E0,-1.4171591E-2,-2.7532286E-3,-5.3138117E-4,5.5489154E-3,-2.0198869E-2,-1.0495514E-2,-1.0088744E-2,-2.9007674E-3,5.4005645E-3,2.1949712E-4,1.868704E-2,7.5163883E-3,7.203491E-3,1.2095379E-2,1.798806E-2,1.0716825E-2],"split_indices":[1,6,1,2,2,7,1,4,7,4,7,6,6,7,6,0,0,0,0,0,0,0,0,0,0,0,0,0,0,0,0],"split_type":[0,0,0,0,0,0,0,0,0,0,0,0,0,0,0,0,0,0,0,0,0,0,0,0,0,0,0,0,0,0,0],"sum_hessian":[1.1021E4,7.208E3,3.813E3,4.039E3,3.169E3,2.398E3,1.415E3,1.286E3,2.753E3,1.354E3,1.815E3,1.939E3,4.59E2,9.82E2,4.33E2,5.1E1,1.235E3,1.355E3,1.398E3,2.74E2,1.08E3,4.69E2,1.346E3,5.77E2,1.362E3,2.08E2,2.51E2,5.97E2,3.85E2,2.85E2,1.48E2],"tree_param":{"num_deleted":"0","num_feature":"9","num_nodes":"31","size_leaf_vector":"1"}},{"base_weights":[-1.0023253E-3,-6.1016683E-2,2.728307E-1,6.715071E-2,-1.6002376E-1,3.9672217E-1,1.5570994E-1,-9.928315E-2,1.4137463E-1,-6.0505795E-1,-1.3387725E-1,3.0521166E-1,5.309684E-1,1.04670905E-1,3.5960317E-1,-1.3467999E-2,-1.862723E-3,2.8482308E-3,7.5298212E-3,-2.3279933E-2,-1.676407E-2,-8.529228E-3,-2.746125E-3,9.5809195E-3,2.5806727E-2,-1.0162092E-2,1.83406E-2,3.518455E-4,6.5139113E-3,1.3101168E-3,1.5153073E-2],"categories":[],"categories_nodes":[],"categories_segments":[],"categories_sizes":[],"default_left":[0,0,0,0,0,0,0,0,0,0,0,0,0,0,0,0,0,0,0,0,0,0,0,0,0,0,0,0,0,0,0],"id":21,"left_children":[1,3,5,7,9,11,13,15,17,19,21,23,25,27,29,-1,-1,-1,-1,-1,-1,-1,-1,-1,-1,-1,-1,-1,-1,-1,-1],"loss_changes":[1.812827E2,1.1482515E2,2.8712082E1,4.873574E1,5.9321304E1,1.166835E1,1.058741E1,1.6066275E1,1.27259865E1,2.2760239E0,3.0120148E1,5.2501106E0,4.646637E0,6.843729E0,5.9040127E0,0E0,0E0,0E0,0E0,0E0,0E0,0E0,0E0,0E0,0E0,0E0,0E0,0E0,0E0,0E0,0E0],"parents":[2147483647,0,0,1,1,2,2,3,3,4,4,5,5,6,6,7,7,8,8,9,9,10,10,11,11,12,12,13,13,14,14],"right_children":[2,4,6,8,10,12,14,16,18,20,22,24,26,28,30,-1,-1,-1,-1,-1,-1,-1,-1,-1,-1,-1,-1,-1,-1,-1,-1],"split_conditions":[3E0,2E0,2E0,2E0,2E0,4E0,3E0,2E0,3E0,3E0,2E0,4E0,2E0,4E0,3E0,-1.3467999E-2,-1.862723E-3,2.8482308E-3,7.5298212E-3,-2.3279933E-2,-1.676407E-2,-8.529228E-3,-2.746125E-3,9.5809195E-3,2.5806727E-2,-1.0162092E-2,1.83406E-2,3.518455E-4,6.5139113E-3,1.3101168E-3,1.5153073E-2],"split_indices":[0,3,3,2,4,0,7,4,7,7,2,7,4,2,2,0,0,0,0,0,0,0,0,0,0,0,0,0,0,0,0],"split_type":[0,0,0,0,0,0,0,0,0,0,0,0,0,0,0,0,0,0,0,0,0,0,0,0,0,0,0,0,0,0,0],"sum_hessian":[1.1029E4,9.047E3,1.982E3,3.943E3,5.104E3,9.62E2,1.02E3,1.216E3,2.727E3,2.82E2,4.822E3,5.74E2,3.88E2,8.17E2,2.03E2,1.54E2,1.062E3,1.615E3,1.112E3,1.53E2,1.29E2,1.467E3,3.355E3,5.51E2,2.3E1,6E0,3.82E2,3.97E2,4.2E2,4.5E1,1.58E2],"tree_param":{"num_deleted":"0","num_feature":"9","num_nodes":"31","size_leaf_vector":"1"}},{"base_weights":[-9.903193E-4,1.23553716E-1,-1.4853452E-1,2.3683408E-1,2.3960987E-2,-3.1380787E-2,-2.6516402E-1,3.9084697E-1,1.6500965E-1,1.5092273E-1,-2.8122062E-2,8.8029265E-2,-1.180013E-1,-1.21000275E-1,-3.7727377E-1,1.077217E-2,2.0541627E-2,4.511454E-3,1.25571545E-2,9.623983E-3,2.5913543E-3,-1.9196256E-3,6.187838E-3,1.6246286E-3,9.97288E-3,-5.131873E-3,2.9974848E-3,-8.711161E-3,-5.5534354E-5,-1.49917845E-2,-1.0709183E-2],"categories":[],"categories_nodes":[],"categories_segments":[],"categories_sizes":[],"default_left":[0,0,0,0,0,0,0,0,0,0,0,0,0,0,0,0,0,0,0,0,0,0,0,0,0,0,0,0,0,0,0],"id":22,"left_children":[1,3,5,7,9,11,13,15,17,19,21,23,25,27,29,-1,-1,-1,-1,-1,-1,-1,-1,-1,-1,-1,-1,-1,-1,-1,-1],"loss_changes":[2.0172896E2,6.715547E1,6.865117E1,3.0742859E1,2.0959433E1,2.5951532E1,4.0650665E1,1.3560059E1,1.2206696E1,9.179161E0,1.3779007E1,8.721774E0,1.0381268E1,1.8135193E1,5.5592346E0,0E0,0E0,0E0,0E0,0E0,0E0,0E0,0E0,0E0,0E0,0E0,0E0,0E0,0E0,0E0,0E0],"parents":[2147483647,0,0,1,1,2,2,3,3,4,4,5,5,6,6,7,7,8,8,9,9,10,10,11,11,12,12,13,13,14,14],"right_children":[2,4,6,8,10,12,14,16,18,20,22,24,26,28,30,-1,-1,-1,-1,-1,-1,-1,-1,-1,-1,-1,-1,-1,-1,-1,-1],"split_conditions":[4E0,2E0,4E0,2E0,2E0,2E0,2E0,8E0,5E0,2E0,5E0,4E0,4E0,2E0,2E0,1.077217E-2,2.0541627E-2,4.511454E-3,1.25571545E-2,9.623983E-3,2.5913543E-3,-1.9196256E-3,6.187838E-3,1.6246286E-3,9.97288E-3,-5.131873E-3,2.9974848E-3,-8.711161E-3,-5.5534354E-5,-1.49917845E-2,-1.0709183E-2],"split_indices":[8,3,6,6,6,3,3,5,2,8,2,2,2,2,2,0,0,0,0,0,0,0,0,0,0,0,0,0,0,0,0],"split_type":[0,0,0,0,0,0,0,0,0,0,0,0,0,0,0,0,0,0,0,0,0,0,0,0,0,0,0,0,0,0,0],"sum_hessian":[1.0976E4,5.952E3,5.024E3,2.784E3,3.168E3,2.507E3,2.517E3,8.84E2,1.9E3,9.21E2,2.247E3,1.054E3,1.453E3,1.102E3,1.415E3,6.7E2,2.14E2,1.655E3,2.45E2,3.25E2,5.96E2,1.978E3,2.69E2,8.86E2,1.68E2,1.246E3,2.07E2,5.11E2,5.91E2,6.55E2,7.6E2],"tree_param":{"num_deleted":"0","num_feature":"9","num_nodes":"31","size_leaf_vector":"1"}},{"base_weights":[2.3740083E-4,-1.9775683E-1,7.229965E-2,-5.3098756E-1,-1.5416072E-1,1.9493203E-1,-3.0833758E-2,-3.816723E-1,-6.5631807E-1,-5.4294623E-2,-2.2694103E-1,1.6021916E-1,4.3000123E-1,-6.1224665E-2,1.8273374E-1,-1.643916E-2,-9.880642E-3,-2.4482818E-2,-1.8755686E-2,-4.809708E-3,-7.318097E-4,-9.622355E-3,-5.9733186E-3,-2.173886E-3,6.235598E-3,-4.819125E-3,1.4985219E-2,-5.6371563E-3,-1.615735E-4,3.85687E-3,8.669067E-3],"categories":[],"categories_nodes":[],"categories_segments":[],"categories_sizes":[],"default_left":[0,0,0,0,0,0,0,0,0,0,0,0,0,0,0,0,0,0,0,0,0,0,0,0,0,0,0,0,0,0,0],"id":23,"left_children":[1,3,5,7,9,11,13,15,17,19,21,23,25,27,29,-1,-1,-1,-1,-1,-1,-1,-1,-1,-1,-1,-1,-1,-1,-1,-1],"loss_changes":[1.5778883E2,4.278898E1,1.0255191E2,6.13089E0,1.8965172E1,3.0155472E1,2.8601887E1,1.3423939E0,8.894501E-1,3.1747713E0,4.351372E0,1.8164207E1,4.1918793E0,2.3117321E1,2.7689743E0,0E0,0E0,0E0,0E0,0E0,0E0,0E0,0E0,0E0,0E0,0E0,0E0,0E0,0E0,0E0,0E0],"parents":[2147483647,0,0,1,1,2,2,3,3,4,4,5,5,6,6,7,7,8,8,9,9,10,10,11,11,12,12,13,13,14,14],"right_children":[2,4,6,8,10,12,14,16,18,20,22,24,26,28,30,-1,-1,-1,-1,-1,-1,-1,-1,-1,-1,-1,-1,-1,-1,-1,-1],"split_conditions":[2E0,2E0,2E0,2E0,2E0,5E0,5E0,3E0,3E0,6E0,3E0,5E0,2E0,2E0,6E0,-1.643916E-2,-9.880642E-3,-2.4482818E-2,-1.8755686E-2,-4.809708E-3,-7.318097E-4,-9.622355E-3,-5.9733186E-3,-2.173886E-3,6.235598E-3,-4.819125E-3,1.4985219E-2,-5.6371563E-3,-1.615735E-4,3.85687E-3,8.669067E-3],"split_indices":[2,4,3,3,3,2,2,7,7,5,7,5,4,7,2,0,0,0,0,0,0,0,0,0,0,0,0,0,0,0,0],"split_type":[0,0,0,0,0,0,0,0,0,0,0,0,0,0,0,0,0,0,0,0,0,0,0,0,0,0,0,0,0,0,0],"sum_hessian":[1.1057E4,2.95E3,8.107E3,3.4E2,2.61E3,3.703E3,4.404E3,1.57E2,1.83E2,1.101E3,1.509E3,3.228E3,4.75E2,3.856E3,5.48E2,6.9E1,8.8E1,1.03E2,8E1,2.95E2,8.06E2,6.87E2,8.22E2,3.23E2,2.905E3,1.2E1,4.63E2,1.337E3,2.519E3,2.88E2,2.6E2],"tree_param":{"num_deleted":"0","num_feature":"9","num_nodes":"31","size_leaf_vector":"1"}},{"base_weights":[-2.2115698E-3,1.1775116E-1,-1.4518662E-1,2.2842039E-1,2.2589913E-2,-2.4055032E-2,-2.3592143E-1,1.7306365E-1,4.557692E-1,-7.1099605E-3,2.367199E-1,-1.4573239E-1,6.410233E-2,-2.8183207E-1,-6.3935444E-2,9.925383E-3,4.4091493E-3,1.1891056E-2,1.8663937E-2,-1.4080922E-3,3.1448428E-3,5.422719E-3,1.8485254E-2,-5.63954E-3,2.7196768E-3,9.2249265E-4,1.0493709E-2,-5.728385E-3,-1.14740115E-2,-4.2150705E-3,2.4209959E-3],"categories":[],"categories_nodes":[],"categories_segments":[],"categories_sizes":[],"default_left":[0,0,0,0,0,0,0,0,0,0,0,0,0,0,0,0,0,0,0,0,0,0,0,0,0,0,0,0,0,0,0],"id":24,"left_children":[1,3,5,7,9,11,13,15,17,19,21,23,25,27,29,-1,-1,-1,-1,-1,-1,-1,-1,-1,-1,-1,-1,-1,-1,-1,-1],"loss_changes":[1.8871985E2,6.300435E1,5.516838E1,3.4732025E1,2.0466986E1,2.308259E1,2.2643463E1,1.1370308E1,5.27652E0,9.870141E0,9.173811E0,4.475334E0,1.1332404E1,1.48654785E1,5.0532756E0,0E0,0E0,0E0,0E0,0E0,0E0,0E0,0E0,0E0,0E0,0E0,0E0,0E0,0E0,0E0,0E0],"parents":[2147483647,0,0,1,1,2,2,3,3,4,4,5,5,6,6,7,7,8,8,9,9,10,10,11,11,12,12,13,13,14,14],"right_children":[2,4,6,8,10,12,14,16,18,20,22,24,26,28,30,-1,-1,-1,-1,-1,-1,-1,-1,-1,-1,-1,-1,-1,-1,-1,-1],"split_conditions":[4E0,2E0,2E0,3E0,5E0,2E0,2E0,2E0,4E0,8E0,4E0,2E0,3E0,5E0,3E0,9.925383E-3,4.4091493E-3,1.1891056E-2,1.8663937E-2,-1.4080922E-3,3.1448428E-3,5.422719E-3,1.8485254E-2,-5.63954E-3,2.7196768E-3,9.2249265E-4,1.0493709E-2,-5.728385E-3,-1.14740115E-2,-4.2150705E-3,2.4209959E-3],"split_indices":[8,3,3,1,2,2,1,8,2,5,1,1,1,8,1,0,0,0,0,0,0,0,0,0,0,0,0,0,0,0,0],"split_type":[0,0,0,0,0,0,0,0,0,0,0,0,0,0,0,0,0,0,0,0,0,0,0,0,0,0,0,0,0,0,0],"sum_hessian":[1.1001E4,5.982E3,5.019E3,2.765E3,3.217E3,2.15E3,2.869E3,2.225E3,5.4E2,2.826E3,3.91E2,9.03E2,1.247E3,2.264E3,6.05E2,5.7E2,1.655E3,2.67E2,2.73E2,2.101E3,7.25E2,3.16E2,7.5E1,8.24E2,7.9E1,1.087E3,1.6E2,7.84E2,1.48E3,4.17E2,1.88E2],"tree_param":{"num_deleted":"0","num_feature":"9","num_nodes":"31","size_leaf_vector":"1"}},{"base_weights":[-1.2846969E-3,1.1221033E-1,-1.3532463E-1,5.8187183E-2,2.7980244E-1,-2.6452301E-2,-2.4580088E-1,1.984898E-1,2.3187606E-3,3.739963E-1,1.7790946E-1,9.44215E-2,-1.122369E-1,-1.1954026E-1,-3.4495237E-1,1.0680509E-2,3.2426747E-3,2.7460044E-3,-2.0605263E-3,1.3834963E-2,4.254449E-3,4.9565284E-4,7.7742534E-3,1.7702059E-3,1.2897476E-2,-5.357768E-3,5.8138027E-4,-8.48382E-3,1.4451356E-4,-1.2576113E-2,-1.8794071E-3],"categories":[],"categories_nodes":[],"categories_segments":[],"categories_sizes":[],"default_left":[0,0,0,0,0,0,0,0,0,0,0,0,0,0,0,0,0,0,0,0,0,0,0,0,0,0,0,0,0,0,0],"id":25,"left_children":[1,3,5,7,9,11,13,15,17,19,21,23,25,27,29,-1,-1,-1,-1,-1,-1,-1,-1,-1,-1,-1,-1,-1,-1,-1,-1],"loss_changes":[1.6679382E2,5.373645E1,6.045729E1,3.5202183E1,1.382132E1,2.6275555E1,3.1193481E1,1.5489597E1,1.618084E1,6.8227463E0,6.027483E0,1.2686338E1,9.006985E0,1.802922E1,1.1538315E1,0E0,0E0,0E0,0E0,0E0,0E0,0E0,0E0,0E0,0E0,0E0,0E0,0E0,0E0,0E0,0E0],"parents":[2147483647,0,0,1,1,2,2,3,3,4,4,5,5,6,6,7,7,8,8,9,9,10,10,11,11,12,12,13,13,14,14],"right_children":[2,4,6,8,10,12,14,16,18,20,22,24,26,28,30,-1,-1,-1,-1,-1,-1,-1,-1,-1,-1,-1,-1,-1,-1,-1,-1],"split_conditions":[4E0,3E0,4E0,2E0,2E0,2E0,2E0,2E0,2E0,5E0,3E0,3E0,2E0,2E0,3E0,1.0680509E-2,3.2426747E-3,2.7460044E-3,-2.0605263E-3,1.3834963E-2,4.254449E-3,4.9565284E-4,7.7742534E-3,1.7702059E-3,1.2897476E-2,-5.357768E-3,5.8138027E-4,-8.48382E-3,1.4451356E-4,-1.2576113E-2,-1.8794071E-3],"split_indices":[8,0,6,6,3,3,3,3,3,6,2,0,0,2,0,0,0,0,0,0,0,0,0,0,0,0,0,0,0,0,0],"split_type":[0,0,0,0,0,0,0,0,0,0,0,0,0,0,0,0,0,0,0,0,0,0,0,0,0,0,0,0,0,0,0],"sum_hessian":[1.0962E4,5.936E3,5.026E3,4.49E3,1.446E3,2.532E3,2.494E3,1.278E3,3.212E3,7.5E2,6.96E2,1.051E3,1.481E3,1.098E3,1.396E3,5.9E2,6.88E2,1.429E3,1.783E3,6.52E2,9.8E1,1.71E2,5.25E2,9.19E2,1.32E2,1.087E3,3.94E2,5.3E2,5.68E2,1.27E3,1.26E2],"tree_param":{"num_deleted":"0","num_feature":"9","num_nodes":"31","size_leaf_vector":"1"}},{"base_weights":[2.874081E-4,-8.242455E-2,1.5543701E-1,1.9214842E-2,-2.088848E-1,2.7983183E-1,3.9911937E-2,1.1941223E-1,-5.3834166E-2,-1.0258479E-1,-2.915778E-1,2.5526235E-1,6.886798E-1,-6.040606E-3,2.5648725E-1,7.996854E-3,2.1615054E-3,-7.182642E-3,-6.8831485E-4,-1.1136984E-3,-5.6969333E-3,-1.23838065E-2,-7.1439566E-3,5.883846E-3,1.2705842E-2,2.9218672E-2,1.769569E-2,-2.2900424E-3,3.5573032E-3,6.958825E-3,2.2531562E-2],"categories":[],"categories_nodes":[],"categories_segments":[],"categories_sizes":[],"default_left":[0,0,0,0,0,0,0,0,0,0,0,0,0,0,0,0,0,0,0,0,0,0,0,0,0,0,0,0,0,0,0],"id":26,"left_children":[1,3,5,7,9,11,13,15,17,19,21,23,25,27,29,-1,-1,-1,-1,-1,-1,-1,-1,-1,-1,-1,-1,-1,-1,-1,-1],"loss_changes":[1.4141664E2,9.239384E1,5.5057426E1,2.9181236E1,2.8125305E1,1.835756E1,1.9786495E1,1.0947441E1,1.2277847E1,6.4927464E0,1.0825623E1,1.7061523E1,2.5831146E0,1.1369915E1,7.0124493E0,0E0,0E0,0E0,0E0,0E0,0E0,0E0,0E0,0E0,0E0,0E0,0E0,0E0,0E0,0E0,0E0],"parents":[2147483647,0,0,1,1,2,2,3,3,4,4,5,5,6,6,7,7,8,8,9,9,10,10,11,11,12,12,13,13,14,14],"right_children":[2,4,6,8,10,12,14,16,18,20,22,24,26,28,30,-1,-1,-1,-1,-1,-1,-1,-1,-1,-1,-1,-1,-1,-1,-1,-1],"split_conditions":[2E0,4E0,2E0,2E0,2E0,4E0,3E0,2E0,2E0,5E0,3E0,3E0,2E0,3E0,4E0,7.996854E-3,2.1615054E-3,-7.182642E-3,-6.8831485E-4,-1.1136984E-3,-5.6969333E-3,-1.23838065E-2,-7.1439566E-3,5.883846E-3,1.2705842E-2,2.9218672E-2,1.769569E-2,-2.2900424E-3,3.5573032E-3,6.958825E-3,2.2531562E-2],"split_indices":[1,6,3,3,3,7,7,6,7,6,7,1,6,1,1,0,0,0,0,0,0,0,0,0,0,0,0,0,0,0,0],"split_type":[0,0,0,0,0,0,0,0,0,0,0,0,0,0,0,0,0,0,0,0,0,0,0,0,0,0,0,0,0,0,0],"sum_hessian":[1.1018E4,7.187E3,3.831E3,3.985E3,3.202E3,1.844E3,1.987E3,1.68E3,2.305E3,1.402E3,1.8E3,1.741E3,1.03E2,1.64E3,3.47E2,5.34E2,1.146E3,3.98E2,1.907E3,6.87E2,7.15E2,9.16E2,8.84E2,1.051E3,6.9E2,4.7E1,5.6E1,1.055E3,5.85E2,3.11E2,3.6E1],"tree_param":{"num_deleted":"0","num_feature":"9","num_nodes":"31","size_leaf_vector":"1"}},{"base_weights":[2.0843593E-3,1.0842788E-1,-1.237188E-1,5.319899E-2,2.775607E-1,-4.3142913E-3,-2.1246946E-1,1.3853614E-1,-3.7296634E-2,3.6827725E-1,1.8140374E-1,-7.0049316E-2,1.806093E-1,-1.1375254E-1,-3.1302816E-1,8.163662E-3,1.7773587E-3,-9.897527E-5,-5.094024E-3,1.37609E-2,2.968054E-3,-4.4870714E-5,7.942484E-3,-2.6288242E-3,2.6324604E-2,3.116693E-3,1.01933135E-2,-5.703448E-3,1.2057107E-3,-1.1219407E-2,-2.284238E-3],"categories":[],"categories_nodes":[],"categories_segments":[],"categories_sizes":[],"default_left":[0,0,0,0,0,0,0,0,0,0,0,0,0,0,0,0,0,0,0,0,0,0,0,0,0,0,0,0,0,0,0],"id":27,"left_children":[1,3,5,7,9,11,13,15,17,19,21,23,25,27,29,-1,-1,-1,-1,-1,-1,-1,-1,-1,-1,-1,-1,-1,-1,-1,-1],"loss_changes":[1.4795123E2,5.5965958E1,5.3684647E1,3.490377E1,1.279966E1,2.6281673E1,2.8811798E1,2.0720821E1,8.594214E0,8.560417E0,7.1543922E0,1.0986242E1,6.070284E0,1.22286625E1,7.118866E0,0E0,0E0,0E0,0E0,0E0,0E0,0E0,0E0,0E0,0E0,0E0,0E0,0E0,0E0,0E0,0E0],"parents":[2147483647,0,0,1,1,2,2,3,3,4,4,5,5,6,6,7,7,8,8,9,9,10,10,11,11,12,12,13,13,14,14],"right_children":[2,4,6,8,10,12,14,16,18,20,22,24,26,28,30,-1,-1,-1,-1,-1,-1,-1,-1,-1,-1,-1,-1,-1,-1,-1,-1],"split_conditions":[4E0,3E0,2E0,3E0,2E0,2E0,4E0,2E0,5E0,5E0,3E0,6E0,3E0,2E0,3E0,8.163662E-3,1.7773587E-3,-9.897527E-5,-5.094024E-3,1.37609E-2,2.968054E-3,-4.4870714E-5,7.942484E-3,-2.6288242E-3,2.6324604E-2,3.116693E-3,1.01933135E-2,-5.703448E-3,1.2057107E-3,-1.1219407E-2,-2.284238E-3],"split_indices":[8,0,3,6,3,0,6,3,6,6,2,2,0,0,0,0,0,0,0,0,0,0,0,0,0,0,0,0,0,0,0],"split_type":[0,0,0,0,0,0,0,0,0,0,0,0,0,0,0,0,0,0,0,0,0,0,0,0,0,0,0,0,0,0,0],"sum_hessian":[1.1057E4,5.992E3,5.065E3,4.518E3,1.474E3,2.16E3,2.905E3,2.325E3,2.193E3,7.57E2,7.17E2,1.594E3,5.66E2,1.467E3,1.438E3,1.05E3,1.275E3,1.686E3,5.07E2,6.61E2,9.6E1,1.65E2,5.52E2,1.58E3,1.4E1,3.3E2,2.36E2,1.069E3,3.98E2,1.328E3,1.1E2],"tree_param":{"num_deleted":"0","num_feature":"9","num_nodes":"31","size_leaf_vector":"1"}},{"base_weights":[4.6554245E-3,-7.749251E-2,1.5881048E-1,-4.403956E-1,-5.210804E-2,2.6416874E-1,6.1782114E-2,-5.487956E-1,-3.1521198E-1,4.131503E-2,-1.207127E-1,2.3974907E-1,6.80556E-1,1.5584593E-2,2.815091E-1,-1.5001205E-2,-2.0969355E-2,-7.387027E-3,-1.359937E-2,-4.1890666E-3,2.1359215E-3,-9.227243E-3,-2.7185678E-3,5.5658165E-3,1.1942318E-2,2.0800225E-2,4.8279252E-2,-1.8437586E-3,4.6175187E-3,8.017949E-3,2.221159E-2],"categories":[],"categories_nodes":[],"categories_segments":[],"categories_sizes":[],"default_left":[0,0,0,0,0,0,0,0,0,0,0,0,0,0,0,0,0,0,0,0,0,0,0,0,0,0,0,0,0,0,0],"id":28,"left_children":[1,3,5,7,9,11,13,15,17,19,21,23,25,27,29,-1,-1,-1,-1,-1,-1,-1,-1,-1,-1,-1,-1,-1,-1,-1,-1],"loss_changes":[1.3929836E2,6.608311E1,3.907544E1,6.1912994E0,4.2998287E1,1.8474861E1,2.0216087E1,1.6338501E0,1.7815933E0,1.0429803E1,2.3684128E1,1.4771759E1,3.885254E0,1.4094908E1,5.515127E0,0E0,0E0,0E0,0E0,0E0,0E0,0E0,0E0,0E0,0E0,0E0,0E0,0E0,0E0,0E0,0E0],"parents":[2147483647,0,0,1,1,2,2,3,3,4,4,5,5,6,6,7,7,8,8,9,9,10,10,11,11,12,12,13,13,14,14],"right_children":[2,4,6,8,10,12,14,16,18,20,22,24,26,28,30,-1,-1,-1,-1,-1,-1,-1,-1,-1,-1,-1,-1,-1,-1,-1,-1],"split_conditions":[2E0,2E0,2E0,3E0,2E0,4E0,3E0,2E0,2E0,5E0,2E0,3E0,9E0,3E0,4E0,-1.5001205E-2,-2.0969355E-2,-7.387027E-3,-1.359937E-2,-4.1890666E-3,2.1359215E-3,-9.227243E-3,-2.7185678E-3,5.5658165E-3,1.1942318E-2,2.0800225E-2,4.8279252E-2,-1.8437586E-3,4.6175187E-3,8.017949E-3,2.221159E-2],"split_indices":[1,4,3,7,3,7,7,3,3,5,7,1,5,1,1,0,0,0,0,0,0,0,0,0,0,0,0,0,0,0,0],"split_type":[0,0,0,0,0,0,0,0,0,0,0,0,0,0,0,0,0,0,0,0,0,0,0,0,0,0,0,0,0,0,0],"sum_hessian":[1.0998E4,7.175E3,3.823E3,4.68E2,6.707E3,1.832E3,1.991E3,2.49E2,2.19E2,2.84E3,3.867E3,1.732E3,1E2,1.646E3,3.45E2,1.07E2,1.42E2,1.07E2,1.12E2,3.34E2,2.506E3,7.98E2,3.069E3,1.053E3,6.79E2,9.4E1,6E0,1.043E3,6.03E2,3.11E2,3.4E1],"tree_param":{"num_deleted":"0","num_feature":"9","num_nodes":"31","size_leaf_vector":"1"}},{"base_weights":[-1.2711902E-3,6.9030136E-2,-1.8488674E-1,1.6283308E-1,-9.252435E-3,-6.7769475E-2,-2.6933727E-1,3.0854958E-1,1.0700479E-1,4.9119968E-2,-1.316692E-1,-8.371142E-2,2.0084703E-2,-2.0983659E-1,-3.9777273E-1,1.2928427E-2,5.0694947E-3,1.9818805E-3,7.900915E-3,8.4468524E-4,7.7771633E-3,-4.1731203E-4,-7.115337E-3,-4.63752E-3,9.165609E-4,-7.890724E-3,1.6782069E-4,-1.6265927E-2,-1.0864092E-2],"categories":[],"categories_nodes":[],"categories_segments":[],"categories_sizes":[],"default_left":[0,0,0,0,0,0,0,0,0,0,0,0,0,0,0,0,0,0,0,0,0,0,0,0,0,0,0,0,0],"id":29,"left_children":[1,3,5,7,9,11,13,15,17,19,21,23,-1,25,27,-1,-1,-1,-1,-1,-1,-1,-1,-1,-1,-1,-1,-1,-1],"loss_changes":[1.4173428E2,5.830601E1,3.004921E1,2.9350983E1,3.0940464E1,1.3554146E1,1.3412308E1,1.1866119E1,1.604612E1,1.280942E1,1.3285242E1,7.4743137E0,0E0,6.378746E0,3.4209213E0,0E0,0E0,0E0,0E0,0E0,0E0,0E0,0E0,0E0,0E0,0E0,0E0,0E0,0E0],"parents":[2147483647,0,0,1,1,2,2,3,3,4,4,5,5,6,6,7,7,8,8,9,9,10,10,11,11,13,13,14,14],"right_children":[2,4,6,8,10,12,14,16,18,20,22,24,-1,26,28,-1,-1,-1,-1,-1,-1,-1,-1,-1,-1,-1,-1,-1,-1],"split_conditions":[5E0,2E0,2E0,2E0,4E0,6E0,5E0,3E0,4E0,5E0,3E0,3E0,2.0084703E-2,4E0,7E0,1.2928427E-2,5.0694947E-3,1.9818805E-3,7.900915E-3,8.4468524E-4,7.7771633E-3,-4.1731203E-4,-7.115337E-3,-4.63752E-3,9.165609E-4,-7.890724E-3,1.6782069E-4,-1.6265927E-2,-1.0864092E-2],"split_indices":[8,3,3,6,6,2,6,8,2,2,8,2,0,2,5,0,0,0,0,0,0,0,0,0,0,0,0,0,0],"split_type":[0,0,0,0,0,0,0,0,0,0,0,0,0,0,0,0,0,0,0,0,0,0,0,0,0,0,0,0,0],"sum_hessian":[1.0978E4,7.939E3,3.039E3,3.611E3,4.328E3,1.274E3,1.765E3,9.99E2,2.612E3,2.931E3,1.397E3,1.245E3,2.9E1,1.208E3,5.57E2,6.75E2,3.24E2,1.898E3,7.14E2,2.59E3,3.41E2,5.6E2,8.37E2,8.37E2,4.08E2,1.084E3,1.24E2,2.58E2,2.99E2],"tree_param":{"num_deleted":"0","num_feature":"9","num_nodes":"29","size_leaf_vector":"1"}},{"base_weights":[-1.6306553E-3,6.518744E-2,-1.7504314E-1,1.2209503E-1,-5.2135646E-2,-4.8335627E-1,-1.3941348E-1,8.99302E-2,2.8757977E-1,6.1586548E-2,-1.2760158E-1,-5.652793E-1,-3.8955167E-1,-1.6260608E-1,2.8421822E-1,6.6076766E-4,6.1602388E-3,8.495176E-3,1.5919711E-2,-6.6268194E-4,5.906445E-3,-5.0155725E-3,1.04573425E-2,-2.7003812E-2,-1.7946174E-2,-1.3805621E-2,9.839262E-3,-2.9938382E-3,-7.661824E-3,7.899446E-3,1.12923505E-2],"categories":[],"categories_nodes":[],"categories_segments":[],"categories_sizes":[],"default_left":[0,0,0,0,0,0,0,0,0,0,0,0,0,0,0,0,0,0,0,0,0,0,0,0,0,0,0,0,0,0,0],"id":30,"left_children":[1,3,5,7,9,11,13,15,17,19,21,23,25,27,29,-1,-1,-1,-1,-1,-1,-1,-1,-1,-1,-1,-1,-1,-1,-1,-1],"loss_changes":[1.2764323E2,5.309849E1,3.3590935E1,2.8477676E1,2.2304287E1,2.215866E0,2.7045639E1,2.9338223E1,5.5674133E0,9.599656E0,1.4684738E1,8.4578323E-1,2.2347012E0,1.2456985E1,2.8433037E-1,0E0,0E0,0E0,0E0,0E0,0E0,0E0,0E0,0E0,0E0,0E0,0E0,0E0,0E0,0E0,0E0],"parents":[2147483647,0,0,1,1,2,2,3,3,4,4,5,5,6,6,7,7,8,8,9,9,10,10,11,11,12,12,13,13,14,14],"right_children":[2,4,6,8,10,12,14,16,18,20,22,24,26,28,30,-1,-1,-1,-1,-1,-1,-1,-1,-1,-1,-1,-1,-1,-1,-1,-1],"split_conditions":[5E0,4E0,2E0,3E0,3E0,3E0,3E0,3E0,3E0,2E0,4E0,3E0,2E0,4E0,2E0,6.6076766E-4,6.1602388E-3,8.495176E-3,1.5919711E-2,-6.6268194E-4,5.906445E-3,-5.0155725E-3,1.04573425E-2,-2.7003812E-2,-1.7946174E-2,-1.3805621E-2,9.839262E-3,-2.9938382E-3,-7.661824E-3,7.899446E-3,1.12923505E-2],"split_indices":[8,6,4,1,8,7,1,7,7,1,1,6,1,6,7,0,0,0,0,0,0,0,0,0,0,0,0,0,0,0,0],"split_type":[0,0,0,0,0,0,0,0,0,0,0,0,0,0,0,0,0,0,0,0,0,0,0,0,0,0,0,0,0,0,0],"sum_hessian":[1.1014E4,7.951E3,3.063E3,5.354E3,2.597E3,3.16E2,2.747E3,4.484E3,8.7E2,1.036E3,1.561E3,1.66E2,1.5E2,2.605E3,1.42E2,2.555E3,1.929E3,7.33E2,1.37E2,6.05E2,4.31E2,1.489E3,7.2E1,1.7E1,1.49E2,1.46E2,4E0,1.222E3,1.383E3,7.5E1,6.7E1],"tree_param":{"num_deleted":"0","num_feature":"9","num_nodes":"31","size_leaf_vector":"1"}},{"base_weights":[1.347518E-3,-7.624568E-2,1.4695042E-1,-3.966313E-1,-5.2337766E-2,2.5640988E-1,4.430641E-2,-4.8543805E-1,-2.972472E-1,3.272708E-2,-1.1553792E-1,2.2710925E-1,4.7506058E-1,-5.189894E-3,2.7017382E-1,-1.2830336E-2,-1.8783014E-2,-1.0603018E-2,1.4917003E-2,-2.5488613E-3,2.9932077E-3,-9.044773E-3,-2.5700778E-3,6.940148E-3,2.049343E-2,-9.848521E-3,1.664252E-2,-2.3611318E-3,3.6935697E-3,7.633091E-3,2.0178815E-2],"categories":[],"categories_nodes":[],"categories_segments":[],"categories_sizes":[],"default_left":[0,0,0,0,0,0,0,0,0,0,0,0,0,0,0,0,0,0,0,0,0,0,0,0,0,0,0,0,0,0,0],"id":31,"left_children":[1,3,5,7,9,11,13,15,17,19,21,23,25,27,29,-1,-1,-1,-1,-1,-1,-1,-1,-1,-1,-1,-1,-1,-1,-1,-1],"loss_changes":[1.24987404E2,5.5259663E1,4.3199837E1,4.277527E0,3.6115124E1,1.1814796E1,2.220409E1,1.7765923E0,3.2738018E0,1.7456453E1,2.311129E1,1.3013313E1,3.3893852E0,1.2172122E1,4.969225E0,0E0,0E0,0E0,0E0,0E0,0E0,0E0,0E0,0E0,0E0,0E0,0E0,0E0,0E0,0E0,0E0],"parents":[2147483647,0,0,1,1,2,2,3,3,4,4,5,5,6,6,7,7,8,8,9,9,10,10,11,11,12,12,13,13,14,14],"right_children":[2,4,6,8,10,12,14,16,18,20,22,24,26,28,30,-1,-1,-1,-1,-1,-1,-1,-1,-1,-1,-1,-1,-1,-1,-1,-1],"split_conditions":[2E0,2E0,2E0,3E0,2E0,4E0,3E0,2E0,5E0,2E0,2E0,4E0,2E0,3E0,4E0,-1.2830336E-2,-1.8783014E-2,-1.0603018E-2,1.4917003E-2,-2.5488613E-3,2.9932077E-3,-9.044773E-3,-2.5700778E-3,6.940148E-3,2.049343E-2,-9.848521E-3,1.664252E-2,-2.3611318E-3,3.6935697E-3,7.633091E-3,2.0178815E-2],"split_indices":[1,4,3,7,3,1,7,3,2,2,7,7,4,1,1,0,0,0,0,0,0,0,0,0,0,0,0,0,0,0,0],"split_type":[0,0,0,0,0,0,0,0,0,0,0,0,0,0,0,0,0,0,0,0,0,0,0,0,0,0,0,0,0,0,0],"sum_hessian":[1.1061E4,7.216E3,3.845E3,5E2,6.716E3,1.86E3,1.985E3,2.62E2,2.38E2,2.863E3,3.853E3,1.642E3,2.18E2,1.629E3,3.56E2,1.1E2,1.52E2,2.33E2,5E0,9.77E2,1.886E3,7.84E2,3.069E3,1.558E3,8.4E1,5E0,2.13E2,1.041E3,5.88E2,3.16E2,4E1],"tree_param":{"num_deleted":"0","num_feature":"9","num_nodes":"31","size_leaf_vector":"1"}},{"base_weights":[1.1471411E-3,6.4895675E-2,-1.6662472E-1,2.2546528E-2,2.1671097E-1,-4.481377E-1,-1.3296053E-1,-2.7054321E-2,8.544187E-2,1.3392587E-1,3.066982E-1,-5.4709417E-1,-4.0756613E-1,-1.542495E-1,2.1840988E-1,-2.5960214E-3,1.4311792E-3,1.8907438E-3,9.66834E-3,9.4550697E-4,6.663641E-3,7.5206743E-3,1.3874707E-2,-1.8950025E-2,-1.22109875E-2,-1.3988228E-2,-5.504271E-3,-5.913337E-3,-1.4892298E-3,2.7173166E-3,1.0021037E-2],"categories":[],"categories_nodes":[],"categories_segments":[],"categories_sizes":[],"default_left":[0,0,0,0,0,0,0,0,0,0,0,0,0,0,0,0,0,0,0,0,0,0,0,0,0,0,0,0,0,0,0],"id":32,"left_children":[1,3,5,7,9,11,13,15,17,19,21,23,25,27,29,-1,-1,-1,-1,-1,-1,-1,-1,-1,-1,-1,-1,-1,-1,-1,-1],"loss_changes":[1.1761535E2,5.1229797E1,2.863649E1,1.944405E1,1.2906334E1,1.0738068E0,2.0275421E1,1.2139889E1,1.6216038E1,6.13978E0,7.2158356E0,6.111145E-2,3.842163E-1,6.0016823E0,1.6676288E0,0E0,0E0,0E0,0E0,0E0,0E0,0E0,0E0,0E0,0E0,0E0,0E0,0E0,0E0,0E0,0E0],"parents":[2147483647,0,0,1,1,2,2,3,3,4,4,5,5,6,6,7,7,8,8,9,9,10,10,11,11,12,12,13,13,14,14],"right_children":[2,4,6,8,10,12,14,16,18,20,22,24,26,28,30,-1,-1,-1,-1,-1,-1,-1,-1,-1,-1,-1,-1,-1,-1,-1,-1],"split_conditions":[5E0,3E0,2E0,3E0,2E0,2E0,3E0,2E0,2E0,3E0,4E0,2E0,2E0,2E0,3E0,-2.5960214E-3,1.4311792E-3,1.8907438E-3,9.66834E-3,9.4550697E-4,6.663641E-3,7.5206743E-3,1.3874707E-2,-1.8950025E-2,-1.22109875E-2,-1.3988228E-2,-5.504271E-3,-5.913337E-3,-1.4892298E-3,2.7173166E-3,1.0021037E-2],"split_indices":[8,0,4,7,7,7,1,1,1,1,0,1,1,0,0,0,0,0,0,0,0,0,0,0,0,0,0,0,0,0,0],"split_type":[0,0,0,0,0,0,0,0,0,0,0,0,0,0,0,0,0,0,0,0,0,0,0,0,0,0,0,0,0,0,0],"sum_hessian":[1.0995E4,7.968E3,3.027E3,6.231E3,1.737E3,3.22E2,2.705E3,3.484E3,2.747E3,9.06E2,8.31E2,9E1,2.32E2,2.551E3,1.54E2,2.026E3,1.458E3,2.4E3,3.47E2,3.42E2,5.64E2,4.66E2,3.65E2,8.1E1,9E0,2.24E2,8E0,2.135E3,4.16E2,5.7E1,9.7E1],"tree_param":{"num_deleted":"0","num_feature":"9","num_nodes":"31","size_leaf_vector":"1"}},{"base_weights":[-3.6233158E-3,5.9754394E-2,-1.7050141E-1,1.1858126E-1,-6.075557E-2,-1.13679715E-1,-2.880635E-1,9.1765076E-2,3.1612343E-1,-1.2853773E-1,6.1651617E-2,-1.315914E-1,1.992657E-1,-3.5303587E-1,-1.6189112E-1,1.4082966E-3,5.6090085E-3,1.7942665E-2,8.291929E-3,-2.319646E-3,-6.848273E-3,5.667959E-3,-9.412002E-4,-5.2005914E-3,2.9677404E-3,1.9600626E-2,4.0021357E-3,-1.3811114E-2,-1.0141824E-2,-6.0729813E-3,2.4786593E-2],"categories":[],"categories_nodes":[],"categories_segments":[],"categories_sizes":[],"default_left":[0,0,0,0,0,0,0,0,0,0,0,0,0,0,0,0,0,0,0,0,0,0,0,0,0,0,0,0,0,0,0],"id":33,"left_children":[1,3,5,7,9,11,13,15,17,19,21,23,25,27,29,-1,-1,-1,-1,-1,-1,-1,-1,-1,-1,-1,-1,-1,-1,-1,-1],"loss_changes":[1.1635006E2,5.652957E1,2.0194534E1,2.8354073E1,2.1712938E1,1.1478004E1,8.025795E0,1.7629677E1,9.558144E0,7.5064735E0,8.926618E0,9.737083E0,3.3478131E0,1.8020859E0,5.734126E0,0E0,0E0,0E0,0E0,0E0,0E0,0E0,0E0,0E0,0E0,0E0,0E0,0E0,0E0,0E0,0E0],"parents":[2147483647,0,0,1,1,2,2,3,3,4,4,5,5,6,6,7,7,8,8,9,9,10,10,11,11,12,12,13,13,14,14],"right_children":[2,4,6,8,10,12,14,16,18,20,22,24,26,28,30,-1,-1,-1,-1,-1,-1,-1,-1,-1,-1,-1,-1,-1,-1,-1,-1],"split_conditions":[5E0,4E0,5E0,5E0,2E0,3E0,2E0,3E0,2E0,5E0,3E0,4E0,2E0,3E0,6E0,1.4082966E-3,5.6090085E-3,1.7942665E-2,8.291929E-3,-2.319646E-3,-6.848273E-3,5.667959E-3,-9.412002E-4,-5.2005914E-3,2.9677404E-3,1.9600626E-2,4.0021357E-3,-1.3811114E-2,-1.0141824E-2,-6.0729813E-3,2.4786593E-2],"split_indices":[8,6,6,2,1,1,2,7,8,6,8,2,2,7,2,0,0,0,0,0,0,0,0,0,0,0,0,0,0,0,0],"split_type":[0,0,0,0,0,0,0,0,0,0,0,0,0,0,0,0,0,0,0,0,0,0,0,0,0,0,0,0,0,0,0],"sum_hessian":[1.0999E4,7.972E3,3.027E3,5.357E3,2.615E3,2.042E3,9.85E2,4.718E3,6.39E2,1.683E3,9.32E2,1.932E3,1.1E2,6.49E2,3.36E2,2.831E3,1.887E3,1.54E2,4.85E2,9.38E2,7.45E2,4.25E2,5.07E2,1.75E3,1.82E2,1.8E1,9.2E1,3.05E2,3.44E2,3.3E2,6E0],"tree_param":{"num_deleted":"0","num_feature":"9","num_nodes":"31","size_leaf_vector":"1"}},{"base_weights":[2.3931159E-4,6.2109936E-2,-1.6224782E-1,1.8371819E-2,2.1585388E-1,-1.8200865E-1,2.1258534E-1,-3.8344286E-2,9.1175124E-2,1.762302E-1,3.9636135E-1,-2.3183618E-1,-1.2927295E-1,2.4084734E-2,3.0753037E-1,-2.9566903E-3,9.851385E-4,1.723724E-3,9.717126E-3,2.8820746E-3,9.069299E-3,2.0901727E-2,1.1340822E-2,-9.424933E-3,-2.6188556E-3,-9.295552E-3,-3.8638415E-3,-2.3512586E-3,3.3997237E-3,8.716992E-3,2.4367876E-2],"categories":[],"categories_nodes":[],"categories_segments":[],"categories_sizes":[],"default_left":[0,0,0,0,0,0,0,0,0,0,0,0,0,0,0,0,0,0,0,0,0,0,0,0,0,0,0,0,0,0,0],"id":34,"left_children":[1,3,5,7,9,11,13,15,17,19,21,23,25,27,29,-1,-1,-1,-1,-1,-1,-1,-1,-1,-1,-1,-1,-1,-1,-1,-1],"loss_changes":[1.1031357E2,5.3435413E1,2.2452324E1,2.5554491E1,1.2518311E1,7.524643E0,2.7129664E0,1.1641441E1,2.1376131E1,1.2177181E1,4.011181E0,1.0928741E1,2.9468899E0,3.8267028E-1,1.8558302E0,0E0,0E0,0E0,0E0,0E0,0E0,0E0,0E0,0E0,0E0,0E0,0E0,0E0,0E0,0E0,0E0],"parents":[2147483647,0,0,1,1,2,2,3,3,4,4,5,5,6,6,7,7,8,8,9,9,10,10,11,11,12,12,13,13,14,14],"right_children":[2,4,6,8,10,12,14,16,18,20,22,24,26,28,30,-1,-1,-1,-1,-1,-1,-1,-1,-1,-1,-1,-1,-1,-1,-1,-1],"split_conditions":[5E0,3E0,3E0,3E0,4E0,3E0,3E0,2E0,2E0,2E0,2E0,2E0,5E0,7E0,9E0,-2.9566903E-3,9.851385E-4,1.723724E-3,9.717126E-3,2.8820746E-3,9.069299E-3,2.0901727E-2,1.1340822E-2,-9.424933E-3,-2.6188556E-3,-9.295552E-3,-3.8638415E-3,-2.3512586E-3,3.3997237E-3,8.716992E-3,2.4367876E-2],"split_indices":[8,0,1,7,1,7,0,1,0,7,8,0,5,5,5,0,0,0,0,0,0,0,0,0,0,0,0,0,0,0,0],"split_type":[0,0,0,0,0,0,0,0,0,0,0,0,0,0,0,0,0,0,0,0,0,0,0,0,0,0,0,0,0,0,0],"sum_hessian":[1.0971E4,7.946E3,3.025E3,6.187E3,1.759E3,2.874E3,1.51E2,3.478E3,2.709E3,1.444E3,3.15E2,1.476E3,1.398E3,5.1E1,1E2,2.008E3,1.47E3,2.254E3,4.55E2,7.33E2,7.11E2,6.4E1,2.51E2,1.124E3,3.52E2,1.24E2,1.274E3,2.3E1,2.8E1,9.1E1,9E0],"tree_param":{"num_deleted":"0","num_feature":"9","num_nodes":"31","size_leaf_vector":"1"}},{"base_weights":[5.7427506E-3,-3.966872E-2,2.1190795E-1,3.6849406E-2,-1.4843631E-1,1.7659555E-1,3.744838E-1,1.1967378E-1,-6.405701E-3,-2.5886598E-1,-8.041201E-2,7.335181E-2,2.1770777E-1,4.4079652E-1,2.3168232E-1,-5.335695E-4,5.351519E-3,-2.3784344E-3,6.9481303E-4,-5.5454737E-3,-1.0435387E-2,-3.204032E-3,5.0618355E-3,-2.811617E-4,6.6334186E-3,8.207154E-3,2.2593809E-3,1.2891071E-2,1.8223245E-2,2.2834219E-2,6.7624077E-3],"categories":[],"categories_nodes":[],"categories_segments":[],"categories_sizes":[],"default_left":[0,0,0,0,0,0,0,0,0,0,0,0,0,0,0,0,0,0,0,0,0,0,0,0,0,0,0,0,0,0,0],"id":35,"left_children":[1,3,5,7,9,11,13,15,17,19,21,23,25,27,29,-1,-1,-1,-1,-1,-1,-1,-1,-1,-1,-1,-1,-1,-1,-1,-1],"loss_changes":[1.0373293E2,7.5575516E1,1.1415764E1,1.9099485E1,2.8148811E1,6.966362E0,3.2690392E0,9.741894E0,6.087951E0,6.8251495E0,7.9251623E0,4.751524E0,4.60305E0,1.2004662E0,1.4459496E0,0E0,0E0,0E0,0E0,0E0,0E0,0E0,0E0,0E0,0E0,0E0,0E0,0E0,0E0,0E0,0E0],"parents":[2147483647,0,0,1,1,2,2,3,3,4,4,5,5,6,6,7,7,8,8,9,9,10,10,11,11,12,12,13,13,14,14],"right_children":[2,4,6,8,10,12,14,16,18,20,22,24,26,28,30,-1,-1,-1,-1,-1,-1,-1,-1,-1,-1,-1,-1,-1,-1,-1,-1],"split_conditions":[3E0,4E0,4E0,2E0,2E0,3E0,4E0,2E0,2E0,5E0,3E0,3E0,5E0,8E0,6E0,-5.335695E-4,5.351519E-3,-2.3784344E-3,6.9481303E-4,-5.5454737E-3,-1.0435387E-2,-3.204032E-3,5.0618355E-3,-2.811617E-4,6.6334186E-3,8.207154E-3,2.2593809E-3,1.2891071E-2,1.8223245E-2,2.2834219E-2,6.7624077E-3],"split_indices":[0,6,1,6,2,2,6,2,2,6,1,1,6,5,5,0,0,0,0,0,0,0,0,0,0,0,0,0,0,0,0],"split_type":[0,0,0,0,0,0,0,0,0,0,0,0,0,0,0,0,0,0,0,0,0,0,0,0,0,0,0,0,0,0,0],"sum_hessian":[1.1078E4,9.079E3,1.999E3,5.33E3,3.749E3,1.644E3,3.55E2,1.828E3,3.502E3,1.428E3,2.321E3,4.69E2,1.175E3,2.41E2,1.14E2,4.11E2,1.417E3,1.037E3,2.465E3,5.04E2,9.24E2,2.182E3,1.39E2,2.83E2,1.86E2,1.001E3,1.74E2,1.56E2,8.5E1,6E0,1.08E2],"tree_param":{"num_deleted":"0","num_feature":"9","num_nodes":"31","size_leaf_vector":"1"}},{"base_weights":[4.5276335E-3,9.350422E-2,-9.982808E-2,1.9848566E-1,4.676939E-2,-1.9436384E-2,-1.8193953E-1,3.1803343E-1,1.28973E-1,1.4125552E-2,2.0780766E-1,-4.9321584E-2,1.379821E-1,-2.0429987E-1,1.4382261E-1,7.5079743E-3,1.5494145E-2,3.1083385E-3,1.0596323E-2,-2.8665466E-3,1.91901E-3,5.0511304E-3,1.125606E-2,-2.0993175E-3,7.2118538E-3,1.5170465E-3,7.954186E-3,-7.07675E-3,1.3588433E-2,2.109427E-3,9.975929E-3],"categories":[],"categories_nodes":[],"categories_segments":[],"categories_sizes":[],"default_left":[0,0,0,0,0,0,0,0,0,0,0,0,0,0,0,0,0,0,0,0,0,0,0,0,0,0,0,0,0,0,0],"id":36,"left_children":[1,3,5,7,9,11,13,15,17,19,21,23,25,27,29,-1,-1,-1,-1,-1,-1,-1,-1,-1,-1,-1,-1,-1,-1,-1,-1],"loss_changes":[1.0249026E2,2.922239E1,3.3529945E1,1.5207985E1,2.1676552E1,1.2087917E1,1.8334457E1,9.004509E0,7.881117E0,1.4605557E1,5.0304356E0,7.432091E0,3.7340693E0,8.5403595E0,1.986686E0,0E0,0E0,0E0,0E0,0E0,0E0,0E0,0E0,0E0,0E0,0E0,0E0,0E0,0E0,0E0,0E0],"parents":[2147483647,0,0,1,1,2,2,3,3,4,4,5,5,6,6,7,7,8,8,9,9,10,10,11,11,12,12,13,13,14,14],"right_children":[2,4,6,8,10,12,14,16,18,20,22,24,26,28,30,-1,-1,-1,-1,-1,-1,-1,-1,-1,-1,-1,-1,-1,-1,-1,-1],"split_conditions":[4E0,2E0,4E0,2E0,3E0,4E0,3E0,3E0,3E0,2E0,4E0,3E0,3E0,6E0,4E0,7.5079743E-3,1.5494145E-2,3.1083385E-3,1.0596323E-2,-2.8665466E-3,1.91901E-3,5.0511304E-3,1.125606E-2,-2.0993175E-3,7.2118538E-3,1.5170465E-3,7.954186E-3,-7.07675E-3,1.3588433E-2,2.109427E-3,9.975929E-3],"split_indices":[8,6,6,8,1,2,1,7,1,7,1,1,6,2,1,0,0,0,0,0,0,0,0,0,0,0,0,0,0,0,0],"split_type":[0,0,0,0,0,0,0,0,0,0,0,0,0,0,0,0,0,0,0,0,0,0,0,0,0,0,0,0,0,0,0],"sum_hessian":[1.1036E4,5.957E3,5.079E3,1.834E3,4.123E3,2.567E3,2.512E3,6.73E2,1.161E3,3.429E3,6.94E2,2.158E3,4.09E2,2.351E3,1.61E2,4.05E2,2.68E2,9.71E2,1.9E2,1.034E3,2.395E3,4.78E2,2.16E2,2.057E3,1.01E2,2.11E2,1.98E2,2.329E3,2.2E1,1.06E2,5.5E1],"tree_param":{"num_deleted":"0","num_feature":"9","num_nodes":"31","size_leaf_vector":"1"}},{"base_weights":[1.5789886E-3,-3.943333E-2,1.892444E-1,4.9014993E-2,-1.07256204E-1,2.806158E-1,1.0273252E-1,-2.7003253E-1,6.946233E-2,-4.3050885E-1,-8.911582E-2,2.6024693E-1,5.9219736E-1,6.660666E-2,2.855588E-1,-1.2461329E-2,-5.838645E-3,1.2939427E-3,5.313181E-3,-1.6875345E-2,-1.1307999E-2,-6.1337375E-3,-1.7893655E-3,7.525394E-3,1.4309793E-2,4.6154726E-3,2.7281646E-2,1.0617569E-3,6.6174697E-3,6.9848243E-3,2.2411909E-2],"categories":[],"categories_nodes":[],"categories_segments":[],"categories_sizes":[],"default_left":[0,0,0,0,0,0,0,0,0,0,0,0,0,0,0,0,0,0,0,0,0,0,0,0,0,0,0,0,0,0,0],"id":37,"left_children":[1,3,5,7,9,11,13,15,17,19,21,23,25,27,29,-1,-1,-1,-1,-1,-1,-1,-1,-1,-1,-1,-1,-1,-1,-1,-1],"loss_changes":[8.458533E1,5.41086E1,1.5551369E1,2.5558931E1,2.9896976E1,5.9258804E0,6.6782017E0,2.2184162E0,1.0083029E1,1.6460495E0,1.6176178E1,5.3561134E0,5.648348E0,3.8585553E0,4.8189564E0,0E0,0E0,0E0,0E0,0E0,0E0,0E0,0E0,0E0,0E0,0E0,0E0,0E0,0E0,0E0,0E0],"parents":[2147483647,0,0,1,1,2,2,3,3,4,4,5,5,6,6,7,7,8,8,9,9,10,10,11,11,12,12,13,13,14,14],"right_children":[2,4,6,8,10,12,14,16,18,20,22,24,26,28,30,-1,-1,-1,-1,-1,-1,-1,-1,-1,-1,-1,-1,-1,-1,-1,-1],"split_conditions":[3E0,2E0,2E0,2E0,2E0,4E0,4E0,3E0,2E0,3E0,2E0,4E0,2E0,3E0,3E0,-1.2461329E-2,-5.838645E-3,1.2939427E-3,5.313181E-3,-1.6875345E-2,-1.1307999E-2,-6.1337375E-3,-1.7893655E-3,7.525394E-3,1.4309793E-2,4.6154726E-3,2.7281646E-2,1.0617569E-3,6.6174697E-3,6.9848243E-3,2.2411909E-2],"split_indices":[0,3,3,4,4,7,1,7,1,7,7,1,1,7,7,0,0,0,0,0,0,0,0,0,0,0,0,0,0,0,0],"split_type":[0,0,0,0,0,0,0,0,0,0,0,0,0,0,0,0,0,0,0,0,0,0,0,0,0,0,0,0,0,0,0],"sum_hessian":[1.0988E4,9.018E3,1.97E3,3.914E3,5.104E3,9.57E2,1.013E3,2.35E2,3.679E3,2.7E2,4.834E3,9E2,5.7E1,8.47E2,1.66E2,1.14E2,1.21E2,2.724E3,9.55E2,1.52E2,1.18E2,1.346E3,3.488E3,7.38E2,1.62E2,1.9E1,3.8E1,6.68E2,1.79E2,1.39E2,2.7E1],"tree_param":{"num_deleted":"0","num_feature":"9","num_nodes":"31","size_leaf_vector":"1"}},{"base_weights":[-4.2536375E-3,5.2023865E-2,-1.492968E-1,1.6648402E-2,1.7754868E-1,-3.8681996E-1,-1.2041526E-1,-6.783815E-2,5.0363068E-2,1.3317162E-1,3.6160207E-1,-1.5158834E-2,-3.0971038E-1,-1.4132793E-1,1.0734886E-1,-3.031654E-3,3.7378909E-3,3.8361817E-3,-3.7377526E-5,3.336582E-3,9.471008E-3,1.5007422E-2,7.7791936E-3,-1.1045405E-2,1.0232704E-2,-6.761965E-3,-2.675223E-3,-1.6654823E-4,8.60566E-3],"categories":[],"categories_nodes":[],"categories_segments":[],"categories_sizes":[],"default_left":[0,0,0,0,0,0,0,0,0,0,0,0,0,0,0,0,0,0,0,0,0,0,0,0,0,0,0,0,0],"id":38,"left_children":[1,3,5,7,9,11,13,15,17,19,21,-1,23,25,27,-1,-1,-1,-1,-1,-1,-1,-1,-1,-1,-1,-1,-1,-1],"loss_changes":[9.008281E1,3.5303444E1,2.111663E1,1.7675112E1,1.4229069E1,1.4951782E0,1.3123379E1,7.043788E0,1.4516699E1,7.0873947E0,3.6221657E0,0E0,1.8377733E0,9.268585E0,3.8643694E0,0E0,0E0,0E0,0E0,0E0,0E0,0E0,0E0,0E0,0E0,0E0,0E0,0E0,0E0],"parents":[2147483647,0,0,1,1,2,2,3,3,4,4,5,5,6,6,7,7,8,8,9,9,10,10,12,12,13,13,14,14],"right_children":[2,4,6,8,10,12,14,16,18,20,22,-1,24,26,28,-1,-1,-1,-1,-1,-1,-1,-1,-1,-1,-1,-1,-1,-1],"split_conditions":[5E0,3E0,2E0,2E0,3E0,3E0,3E0,3E0,3E0,4E0,3E0,-1.5158834E-2,2E0,3E0,3E0,-3.031654E-3,3.7378909E-3,3.8361817E-3,-3.7377526E-5,3.336582E-3,9.471008E-3,1.5007422E-2,7.7791936E-3,-1.1045405E-2,1.0232704E-2,-6.761965E-3,-2.675223E-3,-1.6654823E-4,8.60566E-3],"split_indices":[8,0,4,7,7,7,0,1,8,1,8,0,1,7,1,0,0,0,0,0,0,0,0,0,0,0,0,0,0],"split_type":[0,0,0,0,0,0,0,0,0,0,0,0,0,0,0,0,0,0,0,0,0,0,0,0,0,0,0,0,0],"sum_hessian":[1.1034E4,7.95E3,3.084E3,6.203E3,1.747E3,3.33E2,2.751E3,1.769E3,4.434E3,1.409E3,3.38E2,1.8E2,1.53E2,2.52E3,2.31E2,1.574E3,1.95E2,1.983E3,2.451E3,1.147E3,2.62E2,2.04E2,1.34E2,1.49E2,4E0,1.283E3,1.237E3,1.32E2,9.9E1],"tree_param":{"num_deleted":"0","num_feature":"9","num_nodes":"29","size_leaf_vector":"1"}},{"base_weights":[2.3897726E-3,5.6437083E-2,-1.4032829E-1,1.7119361E-1,1.4785526E-2,-3.7155175E-1,-1.1407099E-1,3.0521595E-1,1.0902605E-1,-1.863417E-2,1.4491333E-1,-4.735865E-1,-3.301647E-1,-1.3437538E-1,1.0772248E-1,8.632643E-3,1.7793054E-2,1.7877303E-3,6.349063E-3,-9.902169E-3,-2.8481134E-4,2.581177E-3,7.331047E-3,-2.3305483E-2,-1.4552551E-2,-1.1822172E-2,-1.9317776E-3,-2.4053312E-3,-6.3469615E-3,4.4497033E-3,-8.305719E-3],"categories":[],"categories_nodes":[],"categories_segments":[],"categories_sizes":[],"default_left":[0,0,0,0,0,0,0,0,0,0,0,0,0,0,0,0,0,0,0,0,0,0,0,0,0,0,0,0,0,0,0],"id":39,"left_children":[1,3,5,7,9,11,13,15,17,19,21,23,25,27,29,-1,-1,-1,-1,-1,-1,-1,-1,-1,-1,-1,-1,-1,-1,-1,-1],"loss_changes":[8.43862E1,3.7925087E1,1.8201885E1,1.7571907E1,2.5325949E1,1.135849E0,1.2173603E1,7.153122E0,6.4199295E0,1.2986568E1,5.8994446E0,4.776249E-1,1.2464523E0,8.417995E0,2.0002172E0,0E0,0E0,0E0,0E0,0E0,0E0,0E0,0E0,0E0,0E0,0E0,0E0,0E0,0E0,0E0,0E0],"parents":[2147483647,0,0,1,1,2,2,3,3,4,4,5,5,6,6,7,7,8,8,9,9,10,10,11,11,12,12,13,13,14,14],"right_children":[2,4,6,8,10,12,14,16,18,20,22,24,26,28,30,-1,-1,-1,-1,-1,-1,-1,-1,-1,-1,-1,-1,-1,-1,-1,-1],"split_conditions":[5E0,2E0,2E0,2E0,3E0,2E0,3E0,4E0,3E0,2E0,2E0,3E0,2E0,4E0,4E0,8.632643E-3,1.7793054E-2,1.7877303E-3,6.349063E-3,-9.902169E-3,-2.8481134E-4,2.581177E-3,7.331047E-3,-2.3305483E-2,-1.4552551E-2,-1.1822172E-2,-1.9317776E-3,-2.4053312E-3,-6.3469615E-3,4.4497033E-3,-8.305719E-3],"split_indices":[8,6,4,8,0,7,0,0,7,4,7,6,0,6,7,0,0,0,0,0,0,0,0,0,0,0,0,0,0,0,0],"split_type":[0,0,0,0,0,0,0,0,0,0,0,0,0,0,0,0,0,0,0,0,0,0,0,0,0,0,0,0,0,0,0],"sum_hessian":[1.0938E4,7.934E3,3.004E3,2.112E3,5.822E3,3.05E2,2.699E3,6.68E2,1.444E3,4.633E3,1.189E3,8.5E1,2.2E2,2.473E3,2.26E2,5.5E2,1.18E2,8.49E2,5.95E2,1.64E2,4.469E3,6.15E2,5.74E2,1.1E1,7.4E1,2.04E2,1.6E1,1.145E3,1.328E3,2.12E2,1.4E1],"tree_param":{"num_deleted":"0","num_feature":"9","num_nodes":"31","size_leaf_vector":"1"}},{"base_weights":[3.902297E-3,9.8384686E-2,-7.2089665E-2,-3.9953493E-2,1.4573078E-1,-1.627504E-2,-2.0623481E-1,1.9230768E-2,-1.5780291E-1,2.6462787E-1,1.038192E-1,2.9953713E-2,-1.1279114E-1,-2.2847317E-1,-4.31625E-3,2.280356E-3,-1.1513063E-3,-6.4190715E-3,2.9834367E-3,1.1411808E-2,4.3618856E-3,2.0480657E-3,6.621539E-3,-7.263499E-7,4.070594E-3,-8.524068E-4,-5.719676E-3,-8.761544E-3,-3.8657268E-3,-1.2738642E-2,1.4297705E-3],"categories":[],"categories_nodes":[],"categories_segments":[],"categories_sizes":[],"default_left":[0,0,0,0,0,0,0,0,0,0,0,0,0,0,0,0,0,0,0,0,0,0,0,0,0,0,0,0,0,0,0],"id":40,"left_children":[1,3,5,7,9,11,13,15,17,19,21,23,25,27,29,-1,-1,-1,-1,-1,-1,-1,-1,-1,-1,-1,-1,-1,-1,-1,-1],"loss_changes":[7.91009E1,3.2171753E1,4.5713856E1,8.7424965E0,1.8205933E1,1.9247204E1,8.05468E0,2.1664002E0,3.411232E0,9.526703E0,1.0793884E1,7.9535637E0,6.974407E0,5.8076096E0,3.1489813E0,0E0,0E0,0E0,0E0,0E0,0E0,0E0,0E0,0E0,0E0,0E0,0E0,0E0,0E0,0E0,0E0],"parents":[2147483647,0,0,1,1,2,2,3,3,4,4,5,5,6,6,7,7,8,8,9,9,10,10,11,11,12,12,13,13,14,14],"right_children":[2,4,6,8,10,12,14,16,18,20,22,24,26,28,30,-1,-1,-1,-1,-1,-1,-1,-1,-1,-1,-1,-1,-1,-1,-1,-1],"split_conditions":[2E0,2E0,5E0,5E0,2E0,4E0,4E0,3E0,8E0,3E0,4E0,4E0,3E0,8E0,6E0,2.280356E-3,-1.1513063E-3,-6.4190715E-3,2.9834367E-3,1.1411808E-2,4.3618856E-3,2.0480657E-3,6.621539E-3,-7.263499E-7,4.070594E-3,-8.524068E-4,-5.719676E-3,-8.761544E-3,-3.8657268E-3,-1.2738642E-2,1.4297705E-3],"split_indices":[3,2,8,6,6,6,2,6,5,8,2,2,8,5,5,0,0,0,0,0,0,0,0,0,0,0,0,0,0,0,0],"split_type":[0,0,0,0,0,0,0,0,0,0,0,0,0,0,0,0,0,0,0,0,0,0,0,0,0,0,0,0,0,0,0],"sum_hessian":[1.1015E4,4.91E3,6.105E3,1.252E3,3.658E3,4.312E3,1.793E3,8.34E2,4.18E2,9.52E2,2.706E3,2.916E3,1.396E3,1.615E3,1.78E2,4.37E2,3.97E2,3.69E2,4.9E1,6.13E2,3.39E2,1.851E3,8.55E2,2.194E3,7.22E2,5.52E2,8.44E2,1.261E3,3.54E2,1.9E1,1.59E2],"tree_param":{"num_deleted":"0","num_feature":"9","num_nodes":"31","size_leaf_vector":"1"}},{"base_weights":[-1.9715803E-3,7.479738E-2,-9.315236E-2,1.8319197E-1,2.7379544E-2,-1.7249834E-2,-1.6956028E-1,2.914367E-1,1.1966344E-1,-1.8683064E-3,1.2568846E-1,-6.357607E-2,9.9070184E-2,-3.3315042E-1,-1.4491825E-1,4.3977355E-3,1.18307825E-2,2.1319971E-3,6.829734E-3,-1.0425962E-2,2.4854636E-4,1.5165692E-3,7.3970025E-3,-3.7734262E-3,-7.815281E-4,1.571375E-3,6.1364104E-3,-1.2997442E-2,-9.251843E-3,-5.512319E-3,1.2874581E-3],"categories":[],"categories_nodes":[],"categories_segments":[],"categories_sizes":[],"default_left":[0,0,0,0,0,0,0,0,0,0,0,0,0,0,0,0,0,0,0,0,0,0,0,0,0,0,0,0,0,0,0],"id":41,"left_children":[1,3,5,7,9,11,13,15,17,19,21,23,25,27,29,-1,-1,-1,-1,-1,-1,-1,-1,-1,-1,-1,-1,-1,-1,-1,-1],"loss_changes":[7.741135E1,3.0854557E1,2.931382E1,1.2528721E1,1.2013342E1,1.3677351E1,1.0106308E1,6.465969E0,5.391947E0,9.175239E0,7.254739E0,3.5512037E0,3.1435094E0,9.096985E-1,7.5604744E0,0E0,0E0,0E0,0E0,0E0,0E0,0E0,0E0,0E0,0E0,0E0,0E0,0E0,0E0,0E0,0E0],"parents":[2147483647,0,0,1,1,2,2,3,3,4,4,5,5,6,6,7,7,8,8,9,9,10,10,11,11,12,12,13,13,14,14],"right_children":[2,4,6,8,10,12,14,16,18,20,22,24,26,28,30,-1,-1,-1,-1,-1,-1,-1,-1,-1,-1,-1,-1,-1,-1,-1,-1],"split_conditions":[4E0,2E0,4E0,2E0,3E0,2E0,2E0,2E0,3E0,2E0,2E0,3E0,3E0,3E0,3E0,4.3977355E-3,1.18307825E-2,2.1319971E-3,6.829734E-3,-1.0425962E-2,2.4854636E-4,1.5165692E-3,7.3970025E-3,-3.7734262E-3,-7.815281E-4,1.571375E-3,6.1364104E-3,-1.2997442E-2,-9.251843E-3,-5.512319E-3,1.2874581E-3],"split_indices":[8,6,6,8,0,0,4,0,7,4,7,7,6,7,0,0,0,0,0,0,0,0,0,0,0,0,0,0,0,0,0],"split_type":[0,0,0,0,0,0,0,0,0,0,0,0,0,0,0,0,0,0,0,0,0,0,0,0,0,0,0,0,0,0,0],"sum_hessian":[1.1057E4,6.003E3,5.054E3,1.826E3,4.177E3,2.536E3,2.518E3,6.74E2,1.152E3,3.22E3,9.57E2,1.814E3,7.22E2,3.28E2,2.19E3,1.84E2,4.9E2,6.88E2,4.64E2,9.3E1,3.127E3,5.16E2,4.41E2,8.23E2,9.91E2,4.44E2,2.78E2,1.69E2,1.59E2,1.986E3,2.04E2],"tree_param":{"num_deleted":"0","num_feature":"9","num_nodes":"31","size_leaf_vector":"1"}},{"base_weights":[1.0378585E-3,7.155664E-2,-8.224686E-2,1.7967248E-1,2.3792757E-2,-1.4567158E-2,-1.4957319E-1,2.788875E-1,1.2060962E-1,-6.053405E-3,1.6171782E-1,-3.2495044E-2,1.9123189E-1,-1.8456255E-1,7.1062464E-3,2.1912124E-4,1.0838549E-2,1.4093838E-3,6.1655096E-3,5.012502E-4,-3.8925826E-3,3.6675741E-3,9.361484E-3,-1.8370774E-3,4.1505806E-3,1.1695894E-2,4.3908497E-3,-6.415199E-3,1.5916105E-2,-1.7341331E-3,4.2100283E-3],"categories":[],"categories_nodes":[],"categories_segments":[],"categories_sizes":[],"default_left":[0,0,0,0,0,0,0,0,0,0,0,0,0,0,0,0,0,0,0,0,0,0,0,0,0,0,0,0,0,0,0],"id":42,"left_children":[1,3,5,7,9,11,13,15,17,19,21,23,25,27,29,-1,-1,-1,-1,-1,-1,-1,-1,-1,-1,-1,-1,-1,-1,-1,-1],"loss_changes":[6.4674995E1,3.0788858E1,2.3004227E1,1.0672443E1,1.703108E1,9.30017E0,1.3876545E1,7.986805E0,5.6405106E0,7.808699E0,4.489382E0,7.97831E0,1.8730578E0,8.2497635E0,3.2076828E0,0E0,0E0,0E0,0E0,0E0,0E0,0E0,0E0,0E0,0E0,0E0,0E0,0E0,0E0,0E0,0E0],"parents":[2147483647,0,0,1,1,2,2,3,3,4,4,5,5,6,6,7,7,8,8,9,9,10,10,11,11,12,12,13,13,14,14],"right_children":[2,4,6,8,10,12,14,16,18,20,22,24,26,28,30,-1,-1,-1,-1,-1,-1,-1,-1,-1,-1,-1,-1,-1,-1,-1,-1],"split_conditions":[4E0,2E0,4E0,2E0,3E0,3E0,2E0,5E0,3E0,5E0,4E0,4E0,3E0,6E0,3E0,2.1912124E-4,1.0838549E-2,1.4093838E-3,6.1655096E-3,5.012502E-4,-3.8925826E-3,3.6675741E-3,9.361484E-3,-1.8370774E-3,4.1505806E-3,1.1695894E-2,4.3908497E-3,-6.415199E-3,1.5916105E-2,-1.7341331E-3,4.2100283E-3],"split_indices":[8,6,6,8,1,1,1,5,2,6,1,2,2,2,1,0,0,0,0,0,0,0,0,0,0,0,0,0,0,0,0],"split_type":[0,0,0,0,0,0,0,0,0,0,0,0,0,0,0,0,0,0,0,0,0,0,0,0,0,0,0,0,0,0,0],"sum_hessian":[1.101E4,5.962E3,5.048E3,1.826E3,4.136E3,2.518E3,2.53E3,6.8E2,1.146E3,3.401E3,7.35E2,2.317E3,2.01E2,2.068E3,4.62E2,9.3E1,5.87E2,5.08E2,6.38E2,2.856E3,5.45E2,5.07E2,2.28E2,2.03E3,2.87E2,5.5E1,1.46E2,2.05E3,1.8E1,3.09E2,1.53E2],"tree_param":{"num_deleted":"0","num_feature":"9","num_nodes":"31","size_leaf_vector":"1"}},{"base_weights":[-5.1281514E-4,7.313154E-2,-8.734471E-2,1.5007077E-1,7.6378053E-3,6.7615965E-3,-1.5692495E-1,1.2698059E-1,3.5217166E-1,-4.9166765E-2,9.7636685E-2,-2.2595255E-2,2.4097663E-1,-1.7487094E-1,2.2695435E-3,7.3400396E-3,3.200905E-3,6.933866E-3,1.5698884E-2,-3.0053654E-3,1.6549516E-3,1.9258353E-3,8.191687E-3,1.2743457E-3,-2.0603945E-3,5.2533387E-3,1.0789256E-2,-8.872161E-3,-4.7405516E-3,-2.7865737E-3,3.9612656E-3],"categories":[],"categories_nodes":[],"categories_segments":[],"categories_sizes":[],"default_left":[0,0,0,0,0,0,0,0,0,0,0,0,0,0,0,0,0,0,0,0,0,0,0,0,0,0,0,0,0,0,0],"id":43,"left_children":[1,3,5,7,9,11,13,15,17,19,21,23,25,27,29,-1,-1,-1,-1,-1,-1,-1,-1,-1,-1,-1,-1,-1,-1,-1,-1],"loss_changes":[7.057807E1,3.009199E1,3.3166374E1,1.2769627E1,1.6502348E1,1.4815951E1,8.3196945E0,7.1416817E0,4.5939865E0,7.8087454E0,7.3433123E0,4.4716396E0,1.5707245E0,7.865494E0,2.914685E0,0E0,0E0,0E0,0E0,0E0,0E0,0E0,0E0,0E0,0E0,0E0,0E0,0E0,0E0,0E0,0E0],"parents":[2147483647,0,0,1,1,2,2,3,3,4,4,5,5,6,6,7,7,8,8,9,9,10,10,11,11,12,12,13,13,14,14],"right_children":[2,4,6,8,10,12,14,16,18,20,22,24,26,28,30,-1,-1,-1,-1,-1,-1,-1,-1,-1,-1,-1,-1,-1,-1,-1,-1],"split_conditions":[4E0,2E0,2E0,4E0,3E0,3E0,3E0,2E0,2E0,3E0,2E0,5E0,3E0,2E0,3E0,7.3400396E-3,3.200905E-3,6.933866E-3,1.5698884E-2,-3.0053654E-3,1.6549516E-3,1.9258353E-3,8.191687E-3,1.2743457E-3,-2.0603945E-3,5.2533387E-3,1.0789256E-2,-8.872161E-3,-4.7405516E-3,-2.7865737E-3,3.9612656E-3],"split_indices":[8,3,3,0,7,0,0,8,7,0,1,8,1,7,1,0,0,0,0,0,0,0,0,0,0,0,0,0,0,0,0],"split_type":[0,0,0,0,0,0,0,0,0,0,0,0,0,0,0,0,0,0,0,0,0,0,0,0,0,0,0,0,0,0,0],"sum_hessian":[1.1035E4,5.971E3,5.064E3,2.745E3,3.226E3,2.153E3,2.911E3,2.465E3,2.8E2,1.978E3,1.248E3,1.914E3,2.39E2,2.616E3,2.95E2,6.38E2,1.827E3,1.24E2,1.56E2,1.405E3,5.73E2,9.78E2,2.7E2,7.46E2,1.168E3,1.17E2,1.22E2,7.24E2,1.892E3,1.7E2,1.25E2],"tree_param":{"num_deleted":"0","num_feature":"9","num_nodes":"31","size_leaf_vector":"1"}},{"base_weights":[-3.7194576E-4,8.3298266E-2,-6.7502E-2,2.3823677E-2,1.8302508E-1,-5.4185437E-3,-1.6414885E-1,9.326493E-2,-6.1339356E-2,1.510933E-1,3.2669586E-1,-1.7001444E-2,2.601319E-1,-2.0842464E-1,-5.808064E-2,6.0112854E-3,1.8482783E-3,-6.901439E-3,-8.703135E-4,4.115444E-3,9.549583E-3,1.00943195E-2,2.4637379E-2,-3.3279364E-3,5.8369664E-4,6.3661784E-3,2.0467693E-2,-5.202022E-3,-8.790914E-3,-3.0920268E-3,2.250917E-3],"categories":[],"categories_nodes":[],"categories_segments":[],"categories_sizes":[],"default_left":[0,0,0,0,0,0,0,0,0,0,0,0,0,0,0,0,0,0,0,0,0,0,0,0,0,0,0,0,0,0,0],"id":44,"left_children":[1,3,5,7,9,11,13,15,17,19,21,23,25,27,29,-1,-1,-1,-1,-1,-1,-1,-1,-1,-1,-1,-1,-1,-1,-1,-1],"loss_changes":[6.201494E1,2.9147541E1,3.6756157E1,1.822031E1,8.373589E0,1.1480398E1,1.124012E1,5.5432215E0,7.0507097E0,5.716793E0,3.402542E0,1.0053401E1,3.7392921E0,4.760803E0,2.9889843E0,0E0,0E0,0E0,0E0,0E0,0E0,0E0,0E0,0E0,0E0,0E0,0E0,0E0,0E0,0E0,0E0],"parents":[2147483647,0,0,1,1,2,2,3,3,4,4,5,5,6,6,7,7,8,8,9,9,10,10,11,11,12,12,13,13,14,14],"right_children":[2,4,6,8,10,12,14,16,18,20,22,24,26,28,30,-1,-1,-1,-1,-1,-1,-1,-1,-1,-1,-1,-1,-1,-1,-1,-1],"split_conditions":[2E0,2E0,4E0,4E0,4E0,4E0,2E0,2E0,2E0,3E0,4E0,2E0,3E0,5E0,3E0,6.0112854E-3,1.8482783E-3,-6.901439E-3,-8.703135E-4,4.115444E-3,9.549583E-3,1.00943195E-2,2.4637379E-2,-3.3279364E-3,5.8369664E-4,6.3661784E-3,2.0467693E-2,-5.202022E-3,-8.790914E-3,-3.0920268E-3,2.250917E-3],"split_indices":[3,1,6,6,0,1,0,6,7,7,7,7,7,6,7,0,0,0,0,0,0,0,0,0,0,0,0,0,0,0,0],"split_type":[0,0,0,0,0,0,0,0,0,0,0,0,0,0,0,0,0,0,0,0,0,0,0,0,0,0,0,0,0,0,0],"sum_hessian":[1.1039E4,4.914E3,6.125E3,3.079E3,1.835E3,3.73E3,2.395E3,1.696E3,1.383E3,1.503E3,3.32E2,3.575E3,1.55E2,1.689E3,7.06E2,5.25E2,1.171E3,2.73E2,1.11E3,1.236E3,2.67E2,3.13E2,1.9E1,1.056E3,2.519E3,1.3E2,2.5E1,8.37E2,8.52E2,5.56E2,1.5E2],"tree_param":{"num_deleted":"0","num_feature":"9","num_nodes":"31","size_leaf_vector":"1"}},{"base_weights":[-1.7315174E-3,8.274413E-2,-7.0061415E-2,2.0974834E-2,1.8494868E-1,-7.1924636E-3,-1.6599295E-1,1.18203074E-1,-3.6386088E-2,-2.987606E-1,1.9306822E-1,-4.3963112E-2,9.115141E-2,-4.1801667E-1,-1.3932714E-1,2.7775138E-3,9.607576E-3,-7.635964E-3,-5.2904786E-4,-1.7042847E-2,2.4224566E-3,5.6879255E-3,1.2579264E-2,-1.9516103E-3,2.6800728E-3,2.3551367E-3,1.3476987E-2,-1.436408E-2,6.000262E-3,-5.522974E-3,-2.07497E-3],"categories":[],"categories_nodes":[],"categories_segments":[],"categories_sizes":[],"default_left":[0,0,0,0,0,0,0,0,0,0,0,0,0,0,0,0,0,0,0,0,0,0,0,0,0,0,0,0,0,0,0],"id":45,"left_children":[1,3,5,7,9,11,13,15,17,19,21,23,25,27,29,-1,-1,-1,-1,-1,-1,-1,-1,-1,-1,-1,-1,-1,-1,-1,-1],"loss_changes":[6.3534763E1,3.1069221E1,3.669814E1,1.7120424E1,7.339264E0,1.3300655E1,1.6131233E1,6.774247E0,7.597865E0,2.4210043E0,7.8787537E0,4.638918E0,6.530861E0,1.2643814E0,4.17857E0,0E0,0E0,0E0,0E0,0E0,0E0,0E0,0E0,0E0,0E0,0E0,0E0,0E0,0E0,0E0,0E0],"parents":[2147483647,0,0,1,1,2,2,3,3,4,4,5,5,6,6,7,7,8,8,9,9,10,10,11,11,12,12,13,13,14,14],"right_children":[2,4,6,8,10,12,14,16,18,20,22,24,26,28,30,-1,-1,-1,-1,-1,-1,-1,-1,-1,-1,-1,-1,-1,-1,-1,-1],"split_conditions":[2E0,2E0,4E0,3E0,2E0,8E0,2E0,8E0,2E0,5E0,4E0,3E0,4E0,4E0,8E0,2.7775138E-3,9.607576E-3,-7.635964E-3,-5.2904786E-4,-1.7042847E-2,2.4224566E-3,5.6879255E-3,1.2579264E-2,-1.9516103E-3,2.6800728E-3,2.3551367E-3,1.3476987E-2,-1.436408E-2,6.000262E-3,-5.522974E-3,-2.07497E-3],"split_indices":[3,1,6,6,4,5,4,5,4,6,1,1,1,1,5,0,0,0,0,0,0,0,0,0,0,0,0,0,0,0,0],"split_type":[0,0,0,0,0,0,0,0,0,0,0,0,0,0,0,0,0,0,0,0,0,0,0,0,0,0,0,0,0,0,0],"sum_hessian":[1.1005E4,4.921E3,6.084E3,3.068E3,1.853E3,3.676E3,2.408E3,1.138E3,1.93E3,3E1,1.823E3,2.676E3,1E3,2.29E2,2.179E3,9.39E2,1.99E2,1.88E2,1.742E3,1.9E1,1.1E1,1.61E3,2.13E2,2.404E3,2.72E2,9.37E2,6.3E1,2.26E2,3E0,1.652E3,5.27E2],"tree_param":{"num_deleted":"0","num_feature":"9","num_nodes":"31","size_leaf_vector":"1"}},{"base_weights":[3.0371835E-3,-1.1979948E-1,4.761032E-2,-6.492588E-2,-2.4229686E-1,1.551515E-1,1.2910079E-2,-7.035115E-2,1.4154431E-1,-2.608653E-1,7.3020175E-2,1.2831362E-1,3.7275296E-1,-1.2253506E-2,1.4042114E-1,-1.3812551E-3,-3.537059E-3,-6.161325E-3,7.5132474E-3,-1.464964E-2,-8.009683E-3,-6.9222844E-4,1.7237091E-2,-3.0607872E-3,4.914141E-3,9.6592E-3,1.6306574E-2,-8.3914143E-4,4.4521005E-3,3.2026225E-3,7.897921E-3],"categories":[],"categories_nodes":[],"categories_segments":[],"categories_sizes":[],"default_left":[0,0,0,0,0,0,0,0,0,0,0,0,0,0,0,0,0,0,0,0,0,0,0,0,0,0,0,0,0,0,0],"id":46,"left_children":[1,3,5,7,9,11,13,15,17,19,21,23,25,27,29,-1,-1,-1,-1,-1,-1,-1,-1,-1,-1,-1,-1,-1,-1,-1,-1],"loss_changes":[6.0046917E1,1.9612137E1,3.0027025E1,2.2704372E0,5.306061E0,1.1416019E1,1.9526268E1,1.9979553E0,1.4186329E0,3.307026E0,2.1057692E0,6.7847576E0,1.920948E0,9.311678E0,4.2559147E0,0E0,0E0,0E0,0E0,0E0,0E0,0E0,0E0,0E0,0E0,0E0,0E0,0E0,0E0,0E0,0E0],"parents":[2147483647,0,0,1,1,2,2,3,3,4,4,5,5,6,6,7,7,8,8,9,9,10,10,11,11,12,12,13,13,14,14],"right_children":[2,4,6,8,10,12,14,16,18,20,22,24,26,28,30,-1,-1,-1,-1,-1,-1,-1,-1,-1,-1,-1,-1,-1,-1,-1,-1],"split_conditions":[2E0,5E0,2E0,3E0,2E0,4E0,3E0,3E0,2E0,5E0,3E0,5E0,8E0,5E0,4E0,-1.3812551E-3,-3.537059E-3,-6.161325E-3,7.5132474E-3,-1.464964E-2,-8.009683E-3,-6.9222844E-4,1.7237091E-2,-3.0607872E-3,4.914141E-3,9.6592E-3,1.6306574E-2,-8.3914143E-4,4.4521005E-3,3.2026225E-3,7.897921E-3],"split_indices":[2,6,6,1,1,0,1,6,6,5,0,5,5,2,1,0,0,0,0,0,0,0,0,0,0,0,0,0,0,0,0],"split_type":[0,0,0,0,0,0,0,0,0,0,0,0,0,0,0,0,0,0,0,0,0,0,0,0,0,0,0,0,0,0,0],"sum_hessian":[1.0965E4,2.919E3,8.046E3,2.017E3,9.02E2,1.962E3,6.084E3,1.966E3,5.1E1,8.52E2,5E1,1.748E3,2.14E2,5.082E3,1.002E3,1.067E3,8.99E2,1E1,4.1E1,9.7E1,7.55E2,4.2E1,8E0,1.3E2,1.618E3,1.23E2,9.1E1,4.673E3,4.09E2,6.78E2,3.24E2],"tree_param":{"num_deleted":"0","num_feature":"9","num_nodes":"31","size_leaf_vector":"1"}},{"base_weights":[-3.1063722E-3,6.1900612E-2,-7.948896E-2,1.2797779E-1,4.913956E-3,4.152892E-3,-1.4037254E-1,6.210099E-2,1.9693163E-1,-4.477078E-2,8.62605E-2,-2.3387963E-1,2.7319914E-2,-3.639509E-1,-1.2206627E-1,4.426418E-3,1.4067095E-3,5.6886356E-3,2.0059664E-2,-1.4526281E-2,-1.1986683E-3,4.7572237E-3,-1.6296544E-4,-1.14176655E-2,-6.3822586E-3,4.219334E-4,5.7584527E-3,-5.021689E-3,-1.3961167E-2,-5.0841738E-3,-8.0763915E-4],"categories":[],"categories_nodes":[],"categories_segments":[],"categories_sizes":[],"default_left":[0,0,0,0,0,0,0,0,0,0,0,0,0,0,0,0,0,0,0,0,0,0,0,0,0,0,0,0,0,0,0],"id":47,"left_children":[1,3,5,7,9,11,13,15,17,19,21,23,25,27,29,-1,-1,-1,-1,-1,-1,-1,-1,-1,-1,-1,-1,-1,-1,-1,-1],"loss_changes":[5.486268E1,2.2475742E1,2.587006E1,1.2543121E1,1.2961493E1,1.1812944E1,1.1988663E1,1.9890208E0,1.4953236E1,7.041175E0,6.0992804E0,8.217592E-1,4.1464696E0,2.3585854E0,7.7185287E0,0E0,0E0,0E0,0E0,0E0,0E0,0E0,0E0,0E0,0E0,0E0,0E0,0E0,0E0,0E0,0E0],"parents":[2147483647,0,0,1,1,2,2,3,3,4,4,5,5,6,6,7,7,8,8,9,9,10,10,11,11,12,12,13,13,14,14],"right_children":[2,4,6,8,10,12,14,16,18,20,22,24,26,28,30,-1,-1,-1,-1,-1,-1,-1,-1,-1,-1,-1,-1,-1,-1,-1,-1],"split_conditions":[4E0,2E0,2E0,2E0,3E0,2E0,2E0,2E0,4E0,2E0,4E0,2E0,3E0,5E0,2E0,4.426418E-3,1.4067095E-3,5.6886356E-3,2.0059664E-2,-1.4526281E-2,-1.1986683E-3,4.7572237E-3,-1.6296544E-4,-1.14176655E-2,-6.3822586E-3,4.219334E-4,5.7584527E-3,-5.021689E-3,-1.3961167E-2,-5.0841738E-3,-8.0763915E-4],"split_indices":[8,3,3,1,7,4,4,8,7,4,7,7,1,8,1,0,0,0,0,0,0,0,0,0,0,0,0,0,0,0,0],"split_type":[0,0,0,0,0,0,0,0,0,0,0,0,0,0,0,0,0,0,0,0,0,0,0,0,0,0,0,0,0,0,0],"sum_hessian":[1.1047E4,5.968E3,5.079E3,2.763E3,3.205E3,2.14E3,2.939E3,1.414E3,1.349E3,1.99E3,1.215E3,1.89E2,1.951E3,2.21E2,2.718E3,3.19E2,1.095E3,1.262E3,8.7E1,4.5E1,1.945E3,7.57E2,4.58E2,5.4E1,1.35E2,1.77E3,1.81E2,4.3E1,1.78E2,2.098E3,6.2E2],"tree_param":{"num_deleted":"0","num_feature":"9","num_nodes":"31","size_leaf_vector":"1"}},{"base_weights":[-3.7217948E-3,5.5031836E-2,-9.415492E-2,1.2619269E-1,-2.0615507E-3,-1.4018372E-1,2.8928095E-2,-6.469671E-2,1.4710206E-1,-3.2550983E-2,8.1325434E-2,-6.631807E-2,-1.9724709E-1,1.159634E-1,-5.2456662E-2,-3.0247553E-3,6.6665467E-3,7.0394E-3,3.6515442E-3,-3.714015E-3,4.425425E-5,2.0257202E-3,1.2538361E-2,-5.818115E-3,-1.312089E-3,-8.403186E-3,-4.8031462E-3,1.4014106E-3,6.6689346E-3,-3.2539258E-3,1.2539786E-4],"categories":[],"categories_nodes":[],"categories_segments":[],"categories_sizes":[],"default_left":[0,0,0,0,0,0,0,0,0,0,0,0,0,0,0,0,0,0,0,0,0,0,0,0,0,0,0,0,0,0,0],"id":48,"left_children":[1,3,5,7,9,11,13,15,17,19,21,23,25,27,29,-1,-1,-1,-1,-1,-1,-1,-1,-1,-1,-1,-1,-1,-1,-1,-1],"loss_changes":[5.8499023E1,2.7115482E1,2.4569065E1,1.1867897E1,9.419778E0,1.32895355E1,8.371515E0,1.9606389E0,6.39209E0,7.145714E0,6.086138E0,4.0033855E0,5.0511627E0,3.4780235E0,1.517628E0,0E0,0E0,0E0,0E0,0E0,0E0,0E0,0E0,0E0,0E0,0E0,0E0,0E0,0E0,0E0,0E0],"parents":[2147483647,0,0,1,1,2,2,3,3,4,4,5,5,6,6,7,7,8,8,9,9,10,10,11,11,12,12,13,13,14,14],"right_children":[2,4,6,8,10,12,14,16,18,20,22,24,26,28,30,-1,-1,-1,-1,-1,-1,-1,-1,-1,-1,-1,-1,-1,-1,-1,-1],"split_conditions":[4E0,2E0,2E0,5E0,8E0,2E0,2E0,3E0,2E0,2E0,4E0,2E0,3E0,2E0,2E0,-3.0247553E-3,6.6665467E-3,7.0394E-3,3.6515442E-3,-3.714015E-3,4.425425E-5,2.0257202E-3,1.2538361E-2,-5.818115E-3,-1.312089E-3,-8.403186E-3,-4.8031462E-3,1.4014106E-3,6.6689346E-3,-3.2539258E-3,1.2539786E-4],"split_indices":[6,3,1,5,5,3,3,1,6,7,1,7,7,7,7,0,0,0,0,0,0,0,0,0,0,0,0,0,0,0,0],"split_type":[0,0,0,0,0,0,0,0,0,0,0,0,0,0,0,0,0,0,0,0,0,0,0,0,0,0,0,0,0,0,0],"sum_hessian":[1.1008E4,6.673E3,4.335E3,2.97E3,3.703E3,3.155E3,1.18E3,2.93E2,2.677E3,2.712E3,9.91E2,1.376E3,1.779E3,5.7E2,6.1E2,2.68E2,2.5E1,1.026E3,1.651E3,8.22E2,1.89E3,9.25E2,6.6E1,2.8E2,1.096E3,9.06E2,8.73E2,3E2,2.7E2,3.41E2,2.69E2],"tree_param":{"num_deleted":"0","num_feature":"9","num_nodes":"31","size_leaf_vector":"1"}},{"base_weights":[1.1691821E-3,6.237058E-2,-7.056987E-2,1.2516177E-1,8.488151E-3,8.925461E-3,-1.2938479E-1,1.9211544E-2,1.527204E-1,-6.996113E-2,4.7966145E-2,-2.071675E-1,3.009146E-2,-3.2800567E-1,-1.137201E-1,-2.8976786E-3,2.1139272E-3,9.880293E-3,3.6271773E-3,-3.733777E-3,1.1011084E-3,4.776705E-3,5.5647787E-4,-1.550733E-2,-5.6120995E-3,-3.6340277E-3,1.5314053E-3,-2.9844316E-3,-1.3062767E-2,-5.6816232E-3,-2.6808963E-3],"categories":[],"categories_nodes":[],"categories_segments":[],"categories_sizes":[],"default_left":[0,0,0,0,0,0,0,0,0,0,0,0,0,0,0,0,0,0,0,0,0,0,0,0,0,0,0,0,0,0,0],"id":49,"left_children":[1,3,5,7,9,11,13,15,17,19,21,23,25,27,29,-1,-1,-1,-1,-1,-1,-1,-1,-1,-1,-1,-1,-1,-1,-1,-1],"loss_changes":[4.8467075E1,2.0153503E1,2.3762102E1,8.029556E0,9.9355E0,9.89484E0,9.050903E0,2.616327E0,1.3789673E1,4.5190425E0,6.2985654E0,1.9025974E0,4.1923714E0,3.02561E0,5.0697403E0,0E0,0E0,0E0,0E0,0E0,0E0,0E0,0E0,0E0,0E0,0E0,0E0,0E0,0E0,0E0,0E0],"parents":[2147483647,0,0,1,1,2,2,3,3,4,4,5,5,6,6,7,7,8,8,9,9,10,10,11,11,12,12,13,13,14,14],"right_children":[2,4,6,8,10,12,14,16,18,20,22,24,26,28,30,-1,-1,-1,-1,-1,-1,-1,-1,-1,-1,-1,-1,-1,-1,-1,-1],"split_conditions":[4E0,2E0,2E0,6E0,2E0,2E0,2E0,2E0,2E0,8E0,2E0,5E0,5E0,5E0,7E0,-2.8976786E-3,2.1139272E-3,9.880293E-3,3.6271773E-3,-3.733777E-3,1.1011084E-3,4.776705E-3,5.5647787E-4,-1.550733E-2,-5.6120995E-3,-3.6340277E-3,1.5314053E-3,-2.9844316E-3,-1.3062767E-2,-5.6816232E-3,-2.6808963E-3],"split_indices":[8,3,3,5,7,4,4,7,8,5,8,5,5,8,5,0,0,0,0,0,0,0,0,0,0,0,0,0,0,0,0],"split_type":[0,0,0,0,0,0,0,0,0,0,0,0,0,0,0,0,0,0,0,0,0,0,0,0,0,0,0,0,0,0,0],"sum_hessian":[1.1037E4,5.956E3,5.081E3,2.75E3,3.206E3,2.161E3,2.92E3,5.68E2,2.182E3,1.073E3,2.133E3,1.92E2,1.969E3,2.12E2,2.708E3,1.66E2,4.02E2,5.27E2,1.655E3,7.67E2,3.06E2,5.34E2,1.599E3,2.5E1,1.67E2,1.97E2,1.772E3,4.3E1,1.69E2,1.034E3,1.674E3],"tree_param":{"num_deleted":"0","num_feature":"9","num_nodes":"31","size_leaf_vector":"1"}},{"base_weights":[-3.1958256E-4,-1.1692755E-1,4.1695636E-2,-3.078612E-1,-9.335585E-2,1.1163361E-1,-5.5511715E-3,-3.9739302E-1,-2.2240767E-1,-5.070569E-2,-1.2839815E-1,5.8561504E-2,2.0962235E-1,-3.844388E-2,7.87708E-2,-1.5230917E-2,-1.1714402E-2,1.8251656E-3,-8.56201E-3,-2.3064064E-3,8.8556076E-4,-5.6619914E-3,-3.2955222E-3,1.2921541E-3,9.062194E-3,9.6735135E-3,5.149659E-3,-7.2862864E-3,-1.0592139E-3,2.5554575E-4,4.2519174E-3],"categories":[],"categories_nodes":[],"categories_segments":[],"categories_sizes":[],"default_left":[0,0,0,0,0,0,0,0,0,0,0,0,0,0,0,0,0,0,0,0,0,0,0,0,0,0,0,0,0,0,0],"id":50,"left_children":[1,3,5,7,9,11,13,15,17,19,21,23,25,27,29,-1,-1,-1,-1,-1,-1,-1,-1,-1,-1,-1,-1,-1,-1,-1,-1],"loss_changes":[5.3936474E1,1.3095097E1,2.6742693E1,2.3598785E0,3.8748589E0,1.6956852E1,1.34021845E1,2.6415634E-1,1.4797688E0,1.610254E0,1.7132187E0,8.991476E0,5.002426E0,4.311857E0,4.586773E0,0E0,0E0,0E0,0E0,0E0,0E0,0E0,0E0,0E0,0E0,0E0,0E0,0E0,0E0,0E0,0E0],"parents":[2147483647,0,0,1,1,2,2,3,3,4,4,5,5,6,6,7,7,8,8,9,9,10,10,11,11,12,12,13,13,14,14],"right_children":[2,4,6,8,10,12,14,16,18,20,22,24,26,28,30,-1,-1,-1,-1,-1,-1,-1,-1,-1,-1,-1,-1,-1,-1,-1,-1],"split_conditions":[2E0,2E0,3E0,3E0,5E0,3E0,4E0,2E0,3E0,8E0,3E0,6E0,2E0,2E0,2E0,-1.5230917E-2,-1.1714402E-2,1.8251656E-3,-8.56201E-3,-2.3064064E-3,8.8556076E-4,-5.6619914E-3,-3.2955222E-3,1.2921541E-3,9.062194E-3,9.6735135E-3,5.149659E-3,-7.2862864E-3,-1.0592139E-3,2.5554575E-4,4.2519174E-3],"split_indices":[2,4,8,7,8,7,2,7,8,5,7,2,